{"learner":{"attributes":{},"feature_names":["id","Gender","Age","City","Working Professional or Student","Profession","Academic Pressure","Work Pressure","CGPA","Study Satisfaction","Job Satisfaction","Sleep Duration","Dietary Habits","Degree","Have you ever had suicidal thoughts ?","Work/Study Hours","Financial Stress","Family History of Mental Illness","Total Pressure","Total Satisfaction"],"feature_types":["int","int","float","int","int","int","float","float","float","float","float","int","int","int","int","float","float","int","float","float"],"gradient_booster":{"model":{"gbtree_model_param":{"num_parallel_tree":"1","num_trees":"100"},"iteration_indptr":[0,1,2,3,4,5,6,7,8,9,10,11,12,13,14,15,16,17,18,19,20,21,22,23,24,25,26,27,28,29,30,31,32,33,34,35,36,37,38,39,40,41,42,43,44,45,46,47,48,49,50,51,52,53,54,55,56,57,58,59,60,61,62,63,64,65,66,67,68,69,70,71,72,73,74,75,76,77,78,79,80,81,82,83,84,85,86,87,88,89,90,91,92,93,94,95,96,97,98,99,100],"tree_info":[0,0,0,0,0,0,0,0,0,0,0,0,0,0,0,0,0,0,0,0,0,0,0,0,0,0,0,0,0,0,0,0,0,0,0,0,0,0,0,0,0,0,0,0,0,0,0,0,0,0,0,0,0,0,0,0,0,0,0,0,0,0,0,0,0,0,0,0,0,0,0,0,0,0,0,0,0,0,0,0,0,0,0,0,0,0,0,0,0,0,0,0,0,0,0,0,0,0,0,0],"trees":[{"base_weights":[9.567176E-8,-1.475437E0,8.497774E-1,-1.8952231E0,-3.7209344E-1,-3.2223007E-1,1.2075982E0,-2.1059935E0,-1.3941456E0,-1.1596195E0,2.0108008E-1,-1.2637309E0,2.083182E-1,6.893402E-1,1.4031683E0,-2.2146578E0,-1.8858856E0,-1.746728E0,-8.386569E-1,-6.1084986E-1,-1.5506381E0,-1.3825266E-1,7.8746504E-1,-1.0257409E0,-1.813205E0,-2.7460715E-1,6.011815E-1,1.00833096E-1,1.0198855E0,1.2023454E0,1.5137414E0,-1.5874535E0,-2.235075E0,-1.563963E0,-2.0271785E0,-1.9936824E0,-1.4057052E0,-1.6143459E-1,-1.2862335E0,3.2955375E-1,-7.732987E-1,-1.2332946E0,-1.956854E0,5.957424E-1,-3.622468E-1,9.149636E-2,1.0261124E0,-1.3720473E0,-6.1597997E-1,-9.9363947E-1,-1.8653386E0,-5.7982194E-1,3.251078E-1,8.149872E-1,-1.6216826E-1,5.588071E-1,-3.8676938E-1,5.1275134E-1,1.2122303E0,1.2753162E0,4.1872498E-1,1.3372797E0,1.5597448E0,-5.5838513E-1,-3.1234646E-1,-6.8869567E-1,-6.153012E-1,-5.4554266E-1,-2.6918724E-1,-6.241791E-1,-4.374957E-1,-2.9422185E-1,-6.0630566E-1,-2.502886E-1,-5.133923E-1,-1.9511016E-1,1.01743504E-1,-2.6052067E-1,-4.8744616E-1,-2.7499086E-1,1.7507988E-1,1.8797036E-2,-2.9403055E-1,-2.9887694E-1,-5.1903576E-1,-6.034585E-1,-3.290528E-1,2.492492E-1,4.8775908E-2,2.0298867E-1,-1.5660806E-1,1.3087529E-1,-2.0196362E-1,3.2784885E-1,-1.1661329E-1,-4.9506366E-1,-3.3345166E-1,-3.2240134E-1,-6.530811E-2,2.1046115E-1,-4.8957345E-1,-5.6699014E-1,-1.7293917E-1,-3.063501E-1,-6.1863583E-2,2.202929E-1,-7.312093E-2,1.716496E-1,3.4928218E-1,-1.8729801E-1,1.5658349E-1,-9.578165E-2,2.1723093E-1,1.8036027E-1,-1.8085441E-1,1.9527864E-1,-7.977519E-2,3.852488E-1,1.2606744E-1,2.9176083E-1,4.2944637E-1,-4.2885203E-2,2.2218823E-1,2.924037E-1,4.3146464E-1,4.3187317E-1,4.7995508E-1],"categories":[],"categories_nodes":[],"categories_segments":[],"categories_sizes":[],"default_left":[0,0,0,0,0,0,0,0,0,0,0,0,0,0,0,0,0,0,0,0,0,0,0,0,0,0,0,0,0,0,0,0,0,0,0,0,0,0,0,0,0,0,0,0,0,0,0,0,0,0,0,0,0,0,0,0,0,0,0,0,0,0,0,0,0,0,0,0,0,0,0,0,0,0,0,0,0,0,0,0,0,0,0,0,0,0,0,0,0,0,0,0,0,0,0,0,0,0,0,0,0,0,0,0,0,0,0,0,0,0,0,0,0,0,0,0,0,0,0,0,0,0,0,0,0,0,0],"id":0,"left_children":[1,3,5,7,9,11,13,15,17,19,21,23,25,27,29,31,33,35,37,39,41,43,45,47,49,51,53,55,57,59,61,63,65,67,69,71,73,75,77,79,81,83,85,87,89,91,93,95,97,99,101,103,105,107,109,111,113,115,117,119,121,123,125,-1,-1,-1,-1,-1,-1,-1,-1,-1,-1,-1,-1,-1,-1,-1,-1,-1,-1,-1,-1,-1,-1,-1,-1,-1,-1,-1,-1,-1,-1,-1,-1,-1,-1,-1,-1,-1,-1,-1,-1,-1,-1,-1,-1,-1,-1,-1,-1,-1,-1,-1,-1,-1,-1,-1,-1,-1,-1,-1,-1,-1,-1,-1,-1],"loss_changes":[6.7876934E3,9.156787E2,1.4410112E3,1.4840332E2,2.4693402E2,4.0200696E2,2.6579517E2,1.9902344E1,8.2213684E1,4.8484955E1,6.321904E1,3.6065033E1,9.792202E1,1.4055054E2,4.0590332E1,5.0092773E0,1.227063E1,1.9130371E1,5.0658005E1,1.514959E1,1.4843628E1,3.3386898E1,1.9241013E1,2.8197708E1,1.8357849E0,4.2621784E1,4.6554665E1,5.8535698E1,4.453067E1,3.8523438E1,7.881836E0,1.7299461E0,2.480957E0,1.6680695E1,4.0325317E0,2.1342773E0,1.8265411E1,1.6843771E1,1.2862686E1,5.303649E0,1.4485798E1,7.445656E0,4.7424316E-1,4.707184E0,2.6115967E1,8.4196825E0,8.598145E0,6.145645E0,1.72239E1,9.047638E0,1.4513245E0,2.5181454E1,1.8528389E1,1.8193756E1,2.026662E1,1.983723E1,2.7491306E1,1.4054859E1,1.8538116E1,2.8131409E1,1.08954935E1,8.147644E0,2.3618164E0,0E0,0E0,0E0,0E0,0E0,0E0,0E0,0E0,0E0,0E0,0E0,0E0,0E0,0E0,0E0,0E0,0E0,0E0,0E0,0E0,0E0,0E0,0E0,0E0,0E0,0E0,0E0,0E0,0E0,0E0,0E0,0E0,0E0,0E0,0E0,0E0,0E0,0E0,0E0,0E0,0E0,0E0,0E0,0E0,0E0,0E0,0E0,0E0,0E0,0E0,0E0,0E0,0E0,0E0,0E0,0E0,0E0,0E0,0E0,0E0,0E0,0E0,0E0,0E0],"parents":[2147483647,0,0,1,1,2,2,3,3,4,4,5,5,6,6,7,7,8,8,9,9,10,10,11,11,12,12,13,13,14,14,15,15,16,16,17,17,18,18,19,19,20,20,21,21,22,22,23,23,24,24,25,25,26,26,27,27,28,28,29,29,30,30,31,31,32,32,33,33,34,34,35,35,36,36,37,37,38,38,39,39,40,40,41,41,42,42,43,43,44,44,45,45,46,46,47,47,48,48,49,49,50,50,51,51,52,52,53,53,54,54,55,55,56,56,57,57,58,58,59,59,60,60,61,61,62,62],"right_children":[2,4,6,8,10,12,14,16,18,20,22,24,26,28,30,32,34,36,38,40,42,44,46,48,50,52,54,56,58,60,62,64,66,68,70,72,74,76,78,80,82,84,86,88,90,92,94,96,98,100,102,104,106,108,110,112,114,116,118,120,122,124,126,-1,-1,-1,-1,-1,-1,-1,-1,-1,-1,-1,-1,-1,-1,-1,-1,-1,-1,-1,-1,-1,-1,-1,-1,-1,-1,-1,-1,-1,-1,-1,-1,-1,-1,-1,-1,-1,-1,-1,-1,-1,-1,-1,-1,-1,-1,-1,-1,-1,-1,-1,-1,-1,-1,-1,-1,-1,-1,-1,-1,-1,-1,-1,-1],"split_conditions":[2E0,4E0,1.5E0,4E0,2.9889834E0,2.9889834E0,2.9889834E0,3E0,3E0,2.6E1,5E0,3E1,2E0,4E0,2E0,1.9E1,2.5E1,2E0,2.5E1,1.9E1,4E0,2E0,1E0,2E0,9.434E3,5E0,3E1,2.7E1,6E0,3.3E1,5E0,8E0,3E0,2.9889834E0,1.2E1,1.9E1,2.5E1,8E0,3E1,5.9E0,2E0,3.3E1,1.2E1,2.8E1,2E1,2.9E1,3.4E1,7E0,7E0,7.35E0,5E0,8E0,2.6E1,5E0,5E0,3E0,2E0,3.2E1,3.3E1,7E0,7E0,1E0,4E0,-5.5838513E-1,-3.1234646E-1,-6.8869567E-1,-6.153012E-1,-5.4554266E-1,-2.6918724E-1,-6.241791E-1,-4.374957E-1,-2.9422185E-1,-6.0630566E-1,-2.502886E-1,-5.133923E-1,-1.9511016E-1,1.01743504E-1,-2.6052067E-1,-4.8744616E-1,-2.7499086E-1,1.7507988E-1,1.8797036E-2,-2.9403055E-1,-2.9887694E-1,-5.1903576E-1,-6.034585E-1,-3.290528E-1,2.492492E-1,4.8775908E-2,2.0298867E-1,-1.5660806E-1,1.3087529E-1,-2.0196362E-1,3.2784885E-1,-1.1661329E-1,-4.9506366E-1,-3.3345166E-1,-3.2240134E-1,-6.530811E-2,2.1046115E-1,-4.8957345E-1,-5.6699014E-1,-1.7293917E-1,-3.063501E-1,-6.1863583E-2,2.202929E-1,-7.312093E-2,1.716496E-1,3.4928218E-1,-1.8729801E-1,1.5658349E-1,-9.578165E-2,2.1723093E-1,1.8036027E-1,-1.8085441E-1,1.9527864E-1,-7.977519E-2,3.852488E-1,1.2606744E-1,2.9176083E-1,4.2944637E-1,-4.2885203E-2,2.2218823E-1,2.924037E-1,4.3146464E-1,4.3187317E-1,4.7995508E-1],"split_indices":[14,6,18,16,16,16,16,6,6,2,16,2,6,6,18,2,2,6,2,2,9,9,12,6,0,16,2,2,15,2,15,15,16,16,15,2,2,15,2,8,9,2,15,2,2,2,2,15,15,8,13,15,2,16,16,15,9,2,2,15,15,12,16,0,0,0,0,0,0,0,0,0,0,0,0,0,0,0,0,0,0,0,0,0,0,0,0,0,0,0,0,0,0,0,0,0,0,0,0,0,0,0,0,0,0,0,0,0,0,0,0,0,0,0,0,0,0,0,0,0,0,0,0,0,0,0,0],"split_type":[0,0,0,0,0,0,0,0,0,0,0,0,0,0,0,0,0,0,0,0,0,0,0,0,0,0,0,0,0,0,0,0,0,0,0,0,0,0,0,0,0,0,0,0,0,0,0,0,0,0,0,0,0,0,0,0,0,0,0,0,0,0,0,0,0,0,0,0,0,0,0,0,0,0,0,0,0,0,0,0,0,0,0,0,0,0,0,0,0,0,0,0,0,0,0,0,0,0,0,0,0,0,0,0,0,0,0,0,0,0,0,0,0,0,0,0,0,0,0,0,0,0,0,0,0,0,0],"sum_hessian":[5.4117275E3,1.9775111E3,3.4342163E3,1.4319741E3,5.4553705E2,8.03273E2,2.6309434E3,1.00572784E3,4.2624628E2,2.2936801E2,3.1616904E2,2.890134E2,5.142596E2,7.220486E2,1.9088948E3,6.6725244E2,3.3847543E2,2.5943317E2,1.6681311E2,9.649944E1,1.3286858E2,2.0075763E2,1.1541139E2,2.0366716E2,8.534624E1,2.3082278E2,2.834368E2,2.6016055E2,4.6188803E2,6.8204254E2,1.2268522E3,2.3518707E1,6.437337E2,1.0692526E2,2.3155017E2,1.4765869E2,1.11774475E2,6.691921E1,9.989389E1,1.4062733E1,8.243671E1,7.686011E1,5.600847E1,4.6552494E1,1.5420514E2,2.9822691E1,8.55887E1,1.0910741E2,9.455975E1,6.3039837E0,7.904226E1,1.5299283E2,7.782995E1,2.213668E2,6.2069992E1,1.3408089E2,1.2607967E2,1.2801936E2,3.3386868E2,6.23367E2,5.867554E1,2.599181E2,9.669341E2,1.4062733E1,9.455976E0,4.757083E2,1.680254E2,7.613272E1,3.0792536E1,2.0924376E2,2.2306404E1,4.8492184E0,1.4280948E2,4.0248512E1,7.152597E1,3.3702065E1,3.3217144E1,4.631003E1,5.358386E1,1.9396873E0,1.2123045E1,1.648734E1,6.594936E1,5.4068783E1,2.2791325E1,5.140171E1,4.606757E0,2.958023E1,1.6972263E1,2.0124256E1,1.3408089E2,2.0851639E1,8.971053E0,8.195179E1,3.6369135E0,5.0189407E1,5.8918E1,4.3158043E1,5.140171E1,1.6972263E0,4.606757E0,7.710257E1,1.9396873E0,6.934382E1,8.364901E1,4.509773E1,3.2732224E1,1.3214119E2,8.922562E1,3.709652E1,2.4973473E1,2.1094099E1,1.12986786E2,2.2306404E1,1.0377327E2,1.08864944E2,1.9154411E1,3.0550073E2,2.8367926E1,2.145779E2,4.087891E2,2.1579021E1,3.709652E1,5.8918E1,2.0100009E2,2.511895E2,7.1574457E2],"tree_param":{"num_deleted":"0","num_feature":"20","num_nodes":"127","size_leaf_vector":"1"}},{"base_weights":[1.281065E-2,-1.0183016E0,6.585701E-1,-1.3029023E0,-2.5837743E-1,-2.2337808E-1,9.539153E-1,-1.3992666E0,-6.9272983E-1,-7.9741156E-1,1.5031825E-1,-8.6473495E-1,1.5441208E-1,5.20017E-1,1.127992E0,-1.5031551E0,-1.2013156E0,-1.2329648E0,-4.306081E-1,-4.2056367E-1,-1.0641228E0,-4.130192E-1,3.6484972E-1,-7.0072216E-1,-1.2460473E0,3.421232E-1,-4.6693823E-1,7.5431824E-2,7.863125E-1,9.4443744E-1,1.2323922E0,-4.73904E-1,-1.3806492E0,-1.0375566E0,-1.4673748E0,-1.2978723E0,-4.4150814E-1,-9.631777E-2,-9.9536186E-1,-9.321731E-1,-2.011988E-1,-8.426948E-1,-1.3518049E0,1.1158848E-1,-7.5812083E-1,5.3516054E-1,-2.2194813E-1,-9.327144E-1,-4.2390844E-1,-1.4341137E0,-1.0230324E0,2.0457977E-2,6.1434793E-1,-7.6165044E-1,6.396703E-2,4.9523702E-1,-2.1925941E-1,3.3347592E-1,9.3615663E-1,1.0626575E0,5.089765E-1,1.0592903E0,1.2809879E0,-3.7640113E-1,-4.8169014E-1,-3.8004252E-1,-2.1765675E-1,-3.8084608E-1,-4.6299392E-1,-2.849493E-1,-4.350324E-1,-3.6421785E-1,3.155564E-1,-2.415738E-1,4.2486668E-2,-3.5698574E-2,-3.4335905E-1,1.1735574E-1,-3.227426E-1,-1.792394E-1,1.9783217E-2,-3.7679076E-1,-1.7528936E-1,-2.993338E-1,-4.5970657E-1,8.561757E-2,-2.331701E-1,-4.425946E-1,-1.5347554E-1,2.2901455E-1,3.689611E-2,-1.5854377E-1,1.3697587E-1,-4.202286E-1,-2.525282E-1,2.632156E-1,-1.5091205E-1,-2.2663032E-1,-4.536053E-1,-9.402839E-2,-3.477261E-1,-1.639043E-1,6.686821E-2,1.2593842E-1,2.7278653E-1,-2.7707198E-1,4.9172025E-2,-1.1203481E-1,1.1573297E-1,-2.0566577E-1,1.6955215E-1,-1.9166692E-1,3.2802247E-2,2.790711E-1,4.2633105E-2,3.1668562E-1,1.5077904E-1,2.2562401E-1,3.5119462E-1,-3.7327953E-2,2.1821578E-1,3.2786214E-1,1.0793192E-2,2.9427737E-1,3.9043173E-1],"categories":[],"categories_nodes":[],"categories_segments":[],"categories_sizes":[],"default_left":[0,0,0,0,0,0,0,0,0,0,0,0,0,0,0,0,0,0,0,0,0,0,0,0,0,0,0,0,0,0,0,0,0,0,0,0,0,0,0,0,0,0,0,0,0,0,0,0,0,0,0,0,0,0,0,0,0,0,0,0,0,0,0,0,0,0,0,0,0,0,0,0,0,0,0,0,0,0,0,0,0,0,0,0,0,0,0,0,0,0,0,0,0,0,0,0,0,0,0,0,0,0,0,0,0,0,0,0,0,0,0,0,0,0,0,0,0,0,0,0,0,0,0,0,0],"id":1,"left_children":[1,3,5,7,9,11,13,15,17,19,21,23,25,27,29,31,33,35,37,39,41,43,45,47,49,51,53,55,57,59,61,-1,63,65,67,69,71,73,75,77,79,81,83,85,87,89,91,93,95,97,99,101,103,105,107,109,111,113,115,117,119,121,123,-1,-1,-1,-1,-1,-1,-1,-1,-1,-1,-1,-1,-1,-1,-1,-1,-1,-1,-1,-1,-1,-1,-1,-1,-1,-1,-1,-1,-1,-1,-1,-1,-1,-1,-1,-1,-1,-1,-1,-1,-1,-1,-1,-1,-1,-1,-1,-1,-1,-1,-1,-1,-1,-1,-1,-1,-1,-1,-1,-1,-1,-1],"loss_changes":[3.4479912E3,4.309519E2,8.2961865E2,8.432251E1,1.2009488E2,1.9387819E2,1.7959717E2,2.3936035E1,2.776548E1,2.317305E1,3.768634E1,1.7673904E1,5.894935E1,8.1025345E1,3.1445068E1,5.477661E0,1.7465698E1,2.7529526E0,2.5594831E1,1.0928558E1,7.585312E0,1.5677324E1,2.2650856E1,1.3068199E1,2.2199097E0,3.3934925E1,1.841263E1,3.1985065E1,2.8744904E1,3.1440002E1,7.739868E0,0E0,7.113037E0,1.8622894E1,4.9969482E-1,1.7657089E0,8.686937E0,1.4719987E1,6.464325E0,6.018566E0,7.513009E0,7.8142624E0,2.172821E0,5.6358995E0,8.4537525E0,1.6371231E1,1.0937061E1,3.6410599E0,1.0473562E1,1.2477341E0,3.8563461E0,2.0630585E1,1.1665192E1,1.1473949E1,6.1713624E0,9.188881E0,2.1040974E1,1.2203891E1,1.6105713E1,1.5475647E1,1.8705872E1,8.305664E0,3.8758545E0,0E0,0E0,0E0,0E0,0E0,0E0,0E0,0E0,0E0,0E0,0E0,0E0,0E0,0E0,0E0,0E0,0E0,0E0,0E0,0E0,0E0,0E0,0E0,0E0,0E0,0E0,0E0,0E0,0E0,0E0,0E0,0E0,0E0,0E0,0E0,0E0,0E0,0E0,0E0,0E0,0E0,0E0,0E0,0E0,0E0,0E0,0E0,0E0,0E0,0E0,0E0,0E0,0E0,0E0,0E0,0E0,0E0,0E0,0E0,0E0,0E0,0E0],"parents":[2147483647,0,0,1,1,2,2,3,3,4,4,5,5,6,6,7,7,8,8,9,9,10,10,11,11,12,12,13,13,14,14,15,15,16,16,17,17,18,18,19,19,20,20,21,21,22,22,23,23,24,24,25,25,26,26,27,27,28,28,29,29,30,30,32,32,33,33,34,34,35,35,36,36,37,37,38,38,39,39,40,40,41,41,42,42,43,43,44,44,45,45,46,46,47,47,48,48,49,49,50,50,51,51,52,52,53,53,54,54,55,55,56,56,57,57,58,58,59,59,60,60,61,61,62,62],"right_children":[2,4,6,8,10,12,14,16,18,20,22,24,26,28,30,32,34,36,38,40,42,44,46,48,50,52,54,56,58,60,62,-1,64,66,68,70,72,74,76,78,80,82,84,86,88,90,92,94,96,98,100,102,104,106,108,110,112,114,116,118,120,122,124,-1,-1,-1,-1,-1,-1,-1,-1,-1,-1,-1,-1,-1,-1,-1,-1,-1,-1,-1,-1,-1,-1,-1,-1,-1,-1,-1,-1,-1,-1,-1,-1,-1,-1,-1,-1,-1,-1,-1,-1,-1,-1,-1,-1,-1,-1,-1,-1,-1,-1,-1,-1,-1,-1,-1,-1,-1,-1,-1,-1,-1,-1],"split_conditions":[2E0,4E0,1.5E0,5E0,2.9889834E0,2.9889834E0,2.9889834E0,3E0,2E0,2.6E1,1E0,3E1,3E1,4E0,2E0,3E0,3E1,1.27048E5,2.9E1,1E0,4E0,2.5E1,3E1,2E0,7E0,2E0,5E0,2.5E1,5E0,3E1,1E0,-4.73904E-1,3E1,2.9889834E0,3E0,2.4E1,1E1,4E0,2E0,1.9E1,6E0,1E0,3E1,9.42E0,9E0,4E0,1E1,2E0,1E0,1.7437E4,2E0,1E0,5E0,1.2E1,2E0,1E0,8E0,2E0,3E1,6E0,4E0,3.4E1,2E0,-3.7640113E-1,-4.8169014E-1,-3.8004252E-1,-2.1765675E-1,-3.8084608E-1,-4.6299392E-1,-2.849493E-1,-4.350324E-1,-3.6421785E-1,3.155564E-1,-2.415738E-1,4.2486668E-2,-3.5698574E-2,-3.4335905E-1,1.1735574E-1,-3.227426E-1,-1.792394E-1,1.9783217E-2,-3.7679076E-1,-1.7528936E-1,-2.993338E-1,-4.5970657E-1,8.561757E-2,-2.331701E-1,-4.425946E-1,-1.5347554E-1,2.2901455E-1,3.689611E-2,-1.5854377E-1,1.3697587E-1,-4.202286E-1,-2.525282E-1,2.632156E-1,-1.5091205E-1,-2.2663032E-1,-4.536053E-1,-9.402839E-2,-3.477261E-1,-1.639043E-1,6.686821E-2,1.2593842E-1,2.7278653E-1,-2.7707198E-1,4.9172025E-2,-1.1203481E-1,1.1573297E-1,-2.0566577E-1,1.6955215E-1,-1.9166692E-1,3.2802247E-2,2.790711E-1,4.2633105E-2,3.1668562E-1,1.5077904E-1,2.2562401E-1,3.5119462E-1,-3.7327953E-2,2.1821578E-1,3.2786214E-1,1.0793192E-2,2.9427737E-1,3.9043173E-1],"split_indices":[14,6,18,16,16,16,16,6,6,2,12,2,2,6,18,16,2,0,2,12,9,2,2,6,15,6,16,2,15,2,12,0,2,16,9,2,15,15,9,2,15,12,2,8,3,9,15,15,3,0,9,12,16,15,6,15,15,9,2,15,16,2,15,0,0,0,0,0,0,0,0,0,0,0,0,0,0,0,0,0,0,0,0,0,0,0,0,0,0,0,0,0,0,0,0,0,0,0,0,0,0,0,0,0,0,0,0,0,0,0,0,0,0,0,0,0,0,0,0,0,0,0,0,0,0],"split_type":[0,0,0,0,0,0,0,0,0,0,0,0,0,0,0,0,0,0,0,0,0,0,0,0,0,0,0,0,0,0,0,0,0,0,0,0,0,0,0,0,0,0,0,0,0,0,0,0,0,0,0,0,0,0,0,0,0,0,0,0,0,0,0,0,0,0,0,0,0,0,0,0,0,0,0,0,0,0,0,0,0,0,0,0,0,0,0,0,0,0,0,0,0,0,0,0,0,0,0,0,0,0,0,0,0,0,0,0,0,0,0,0,0,0,0,0,0,0,0,0,0,0,0,0,0],"sum_hessian":[5.1763193E3,1.9931665E3,3.1831528E3,1.4495704E3,5.43596E2,7.986122E2,2.3845405E3,1.2507473E3,1.9882312E2,2.3400829E2,3.0958774E2,2.9556177E2,5.030504E2,6.8388855E2,1.7006521E3,8.1593524E2,4.3481213E2,6.3743504E1,1.3507962E2,9.804835E1,1.3595995E2,8.512722E1,2.2446051E2,2.0865236E2,8.690939E1,3.8668234E2,1.1636809E2,2.5666495E2,4.2722357E2,6.2022626E2,1.0804258E3,4.9489676E2,3.2103848E2,2.721834E2,1.6262871E2,5.8320755E1,5.422751E0,8.5588455E1,4.949116E1,2.8449093E1,6.959925E1,7.9046974E1,5.6912964E1,3.4047073E1,5.108015E1,1.7403654E2,5.0423958E1,1.1222732E2,9.642504E1,4.4202904E1,4.2706493E1,1.7773862E2,2.0894373E2,7.454988E1,4.1818207E1,1.05579765E2,1.5108519E2,1.0702225E2,3.2020132E2,4.8666498E2,1.3356131E2,2.4182454E2,8.3860126E2,2.1001723E2,1.11021255E2,1.5514125E2,1.1704217E2,5.0014027E1,1.1261468E2,1.9950073E1,3.837068E1,3.6971557E0,1.725595E0,2.0908518E1,6.467994E1,7.46018E0,4.203098E1,2.6167464E0,2.5832348E1,2.752846E1,4.2070793E1,2.892475E1,5.0122227E1,2.1426311E1,3.5486652E1,2.9046188E1,5.0008845E0,1.1791996E1,3.9288155E1,1.114657E2,6.2570854E1,3.488544E1,1.5538517E1,1.5917116E1,9.63102E1,4.949213E0,9.147583E1,5.652937E0,3.8549965E1,7.4023857E0,3.5304108E1,4.6327175E1,1.3141144E2,1.273575E2,8.158623E1,6.345143E1,1.1098446E1,1.765727E1,2.4160934E1,5.411492E0,1.00168274E2,6.5937355E1,8.5147835E1,2.5048645E1,8.19736E1,2.4990762E2,7.029369E1,1.2761497E2,3.5905002E2,3.435619E1,9.9205124E1,2.340746E2,7.7499394E0,5.663339E1,7.8196783E2],"tree_param":{"num_deleted":"0","num_feature":"20","num_nodes":"125","size_leaf_vector":"1"}},{"base_weights":[1.3662365E-2,-7.8050154E-1,5.2552676E-1,-1.0161704E0,-1.8942288E-1,-1.625477E-1,7.788751E-1,-1.1565702E0,-7.04652E-1,-3.741247E-1,5.5423033E-1,-4.9330705E-1,2.618585E-1,5.141444E-1,1.0312592E0,-1.2987581E0,-1.066509E0,-9.2550427E-1,-3.7307587E-1,-6.610032E-1,-8.752902E-2,7.4036545E-1,2.0855099E-1,-8.711861E-1,-3.2074526E-1,-5.9085157E-2,5.029134E-1,3.1679317E-1,9.096692E-1,1.0775346E0,7.118599E-1,-4.0863106E-1,-1.213856E0,-8.4382355E-1,-1.17063E0,-1.2242491E0,-7.666581E-1,7.700733E-3,-6.301783E-1,-2.8495044E-1,-9.044732E-1,6.997919E-1,-1.902297E-1,-9.971628E-2,7.7685785E-1,3.8656715E-1,-8.984416E-1,-7.839569E-1,-1.2147332E0,-5.888474E-1,-2.0861102E-2,-7.059022E-1,1.4589973E-1,6.836966E-1,1.5790616E-1,6.4112104E-2,6.2266237E-1,9.434827E-1,3.6824312E-2,1.0959154E0,5.28497E-1,9.677117E-1,3.1581268E-1,-3.8046843E-1,-3.1004113E-1,-3.535046E-1,-1.6461283E-1,-3.8908166E-1,-3.2074934E-1,-2.896706E-1,-3.989932E-1,-1.4500429E-1,-3.0503628E-1,1.7682227E-1,-9.495146E-2,-2.9653466E-1,-1.2659192E-1,-2.508452E-1,-6.210676E-3,-1.0982365E-1,-3.1951234E-1,8.187803E-2,2.872797E-1,-1.8315981E-1,-4.0593916E-3,2.446361E-1,-3.3626903E-3,-1.1196602E-2,1.584218E-1,-4.056592E-1,2.4951365E-2,-2.0290913E-1,-3.4149373E-1,-3.901017E-1,-5.395929E-2,-1.1388186E-1,-2.8974947E-1,9.775339E-2,-8.146202E-2,-3.7224853E-1,-1.0271374E-1,1.7473929E-1,-3.593545E-2,3.69904E-2,2.925057E-1,-7.987335E-2,1.524656E-1,1.0511543E-1,-6.499227E-2,6.6329785E-2,2.3636703E-1,1.8162094E-1,3.139545E-1,-1.06631614E-1,2.3628336E-1,3.074152E-1,3.6526614E-1,4.4768296E-2,2.3701248E-1,2.2272567E-1,3.3936694E-1,-9.94916E-2,1.6204706E-1],"categories":[],"categories_nodes":[],"categories_segments":[],"categories_sizes":[],"default_left":[0,0,0,0,0,0,0,0,0,0,0,0,0,0,0,0,0,0,0,0,0,0,0,0,0,0,0,0,0,0,0,0,0,0,0,0,0,0,0,0,0,0,0,0,0,0,0,0,0,0,0,0,0,0,0,0,0,0,0,0,0,0,0,0,0,0,0,0,0,0,0,0,0,0,0,0,0,0,0,0,0,0,0,0,0,0,0,0,0,0,0,0,0,0,0,0,0,0,0,0,0,0,0,0,0,0,0,0,0,0,0,0,0,0,0,0,0,0,0,0,0,0,0],"id":2,"left_children":[1,3,5,7,9,11,13,15,17,19,21,23,25,27,29,31,33,35,37,39,41,43,45,47,49,51,53,55,57,59,61,-1,63,65,67,69,71,73,75,77,79,81,83,-1,85,87,89,91,93,95,97,99,101,103,105,107,109,111,113,115,117,119,121,-1,-1,-1,-1,-1,-1,-1,-1,-1,-1,-1,-1,-1,-1,-1,-1,-1,-1,-1,-1,-1,-1,-1,-1,-1,-1,-1,-1,-1,-1,-1,-1,-1,-1,-1,-1,-1,-1,-1,-1,-1,-1,-1,-1,-1,-1,-1,-1,-1,-1,-1,-1,-1,-1,-1,-1,-1,-1,-1,-1],"loss_changes":[1.9284622E3,2.5880603E2,5.0299548E2,5.7314697E1,7.317442E1,1.0922069E2,1.403512E2,1.0326782E1,3.0079193E1,3.497843E1,6.672077E0,2.8222801E1,2.641395E1,8.0197174E1,1.5172852E1,2.2937012E-1,1.2124756E1,1.0863129E1,1.6429598E1,1.9226768E1,1.7463242E1,2.9425392E0,7.9392276E0,3.1366577E0,2.424052E1,1.9616371E1,1.2045898E1,5.324315E1,1.0079407E1,8.907471E0,1.3822121E1,0E0,2.4655151E-1,1.7494858E1,3.518921E0,1.0311279E0,1.1203949E1,1.3125935E1,7.054428E0,1.2376944E1,1.0737564E1,2.4838324E0,1.4130785E1,0E0,2.0352516E0,2.0523744E0,2.6236424E0,3.4864044E0,2.05262E0,1.2193485E1,1.2553703E1,6.4956055E0,1.3128336E1,2.0705025E1,1.0283695E1,3.0508503E1,2.0511398E1,1.0856812E1,4.3503566E0,6.621704E0,3.0943365E0,2.2626343E0,8.342928E0,0E0,0E0,0E0,0E0,0E0,0E0,0E0,0E0,0E0,0E0,0E0,0E0,0E0,0E0,0E0,0E0,0E0,0E0,0E0,0E0,0E0,0E0,0E0,0E0,0E0,0E0,0E0,0E0,0E0,0E0,0E0,0E0,0E0,0E0,0E0,0E0,0E0,0E0,0E0,0E0,0E0,0E0,0E0,0E0,0E0,0E0,0E0,0E0,0E0,0E0,0E0,0E0,0E0,0E0,0E0,0E0,0E0,0E0,0E0,0E0],"parents":[2147483647,0,0,1,1,2,2,3,3,4,4,5,5,6,6,7,7,8,8,9,9,10,10,11,11,12,12,13,13,14,14,15,15,16,16,17,17,18,18,19,19,20,20,21,21,22,22,23,23,24,24,25,25,26,26,27,27,28,28,29,29,30,30,32,32,33,33,34,34,35,35,36,36,37,37,38,38,39,39,40,40,41,41,42,42,44,44,45,45,46,46,47,47,48,48,49,49,50,50,51,51,52,52,53,53,54,54,55,55,56,56,57,57,58,58,59,59,60,60,61,61,62,62],"right_children":[2,4,6,8,10,12,14,16,18,20,22,24,26,28,30,32,34,36,38,40,42,44,46,48,50,52,54,56,58,60,62,-1,64,66,68,70,72,74,76,78,80,82,84,-1,86,88,90,92,94,96,98,100,102,104,106,108,110,112,114,116,118,120,122,-1,-1,-1,-1,-1,-1,-1,-1,-1,-1,-1,-1,-1,-1,-1,-1,-1,-1,-1,-1,-1,-1,-1,-1,-1,-1,-1,-1,-1,-1,-1,-1,-1,-1,-1,-1,-1,-1,-1,-1,-1,-1,-1,-1,-1,-1,-1,-1,-1,-1,-1,-1,-1,-1,-1,-1,-1,-1,-1,-1],"split_conditions":[2E0,4E0,1.5E0,4E0,5E0,4E0,4E0,2E0,3E0,5E0,4E0,5E0,8E0,5E0,5E0,8E0,2.5E1,1E0,2.5E1,3E0,2E1,1E0,3.3E1,3.2E1,2E0,1E0,2E0,9E0,3.4E1,3.4E1,2.7E1,-4.0863106E-1,8.95E0,7E0,2E0,2.4E1,2E0,3E0,1E0,1E0,2.2E1,1.4E1,5E0,-9.971628E-2,1.34187E5,1E0,2E0,1.14899E5,2.7E1,2.9E1,2.5E1,6.63E0,3E0,1E0,2E0,2.6E1,2E0,1E0,1E1,2.5E0,4E0,8E0,5E0,-3.8046843E-1,-3.1004113E-1,-3.535046E-1,-1.6461283E-1,-3.8908166E-1,-3.2074934E-1,-2.896706E-1,-3.989932E-1,-1.4500429E-1,-3.0503628E-1,1.7682227E-1,-9.495146E-2,-2.9653466E-1,-1.2659192E-1,-2.508452E-1,-6.210676E-3,-1.0982365E-1,-3.1951234E-1,8.187803E-2,2.872797E-1,-1.8315981E-1,-4.0593916E-3,2.446361E-1,-3.3626903E-3,-1.1196602E-2,1.584218E-1,-4.056592E-1,2.4951365E-2,-2.0290913E-1,-3.4149373E-1,-3.901017E-1,-5.395929E-2,-1.1388186E-1,-2.8974947E-1,9.775339E-2,-8.146202E-2,-3.7224853E-1,-1.0271374E-1,1.7473929E-1,-3.593545E-2,3.69904E-2,2.925057E-1,-7.987335E-2,1.524656E-1,1.0511543E-1,-6.499227E-2,6.6329785E-2,2.3636703E-1,1.8162094E-1,3.139545E-1,-1.06631614E-1,2.3628336E-1,3.074152E-1,3.6526614E-1,4.4768296E-2,2.3701248E-1,2.2272567E-1,3.3936694E-1,-9.94916E-2,1.6204706E-1],"split_indices":[14,6,18,16,16,16,16,6,6,6,9,15,15,6,9,15,2,12,2,9,2,15,2,2,6,11,12,15,2,2,2,0,8,15,16,2,12,9,12,12,2,3,15,0,0,12,11,0,3,2,2,8,9,12,6,2,16,12,15,18,6,15,15,0,0,0,0,0,0,0,0,0,0,0,0,0,0,0,0,0,0,0,0,0,0,0,0,0,0,0,0,0,0,0,0,0,0,0,0,0,0,0,0,0,0,0,0,0,0,0,0,0,0,0,0,0,0,0,0,0,0,0,0],"split_type":[0,0,0,0,0,0,0,0,0,0,0,0,0,0,0,0,0,0,0,0,0,0,0,0,0,0,0,0,0,0,0,0,0,0,0,0,0,0,0,0,0,0,0,0,0,0,0,0,0,0,0,0,0,0,0,0,0,0,0,0,0,0,0,0,0,0,0,0,0,0,0,0,0,0,0,0,0,0,0,0,0,0,0,0,0,0,0,0,0,0,0,0,0,0,0,0,0,0,0,0,0,0,0,0,0,0,0,0,0,0,0,0,0,0,0,0,0,0,0,0,0,0,0],"sum_hessian":[4.742006E3,1.8583022E3,2.8837036E3,1.328069E3,5.302333E2,7.761361E2,2.1075674E3,9.1360077E2,4.1446826E2,4.251382E2,1.05095055E2,4.361005E2,3.400356E2,1.030106E3,1.0774614E3,3.4907025E2,5.645305E2,2.4769519E2,1.6677306E2,2.1181142E2,2.1332678E2,6.756963E1,3.752543E1,1.3544717E2,3.0065332E2,1.4617337E2,1.9386224E2,6.8841504E2,3.4169095E2,9.3903754E2,1.3842387E2,1.9129941E2,1.5777084E2,1.8276067E2,3.8176984E2,8.365553E1,1.6403966E2,6.761025E1,9.916281E1,8.409401E1,1.27717415E2,2.3945168E1,1.8938162E2,1.9561777E0,6.561345E1,3.2887554E1,4.6378727E0,1.1063746E2,2.4809721E1,1.5822954E2,1.4242378E2,3.4588337E1,1.1158503E2,1.2656217E2,6.7300064E1,3.7764716E2,3.1076785E2,3.288698E2,1.2821145E1,9.0765485E2,3.138273E1,8.321952E1,5.5204353E1,1.1659572E2,4.1175125E1,8.4257805E1,9.850286E1,1.6481664E2,2.1695322E2,2.7211313E1,5.644422E1,7.8293015E1,8.574664E1,2.3903435E1,4.3706814E1,3.506941E1,6.409341E1,2.654955E1,5.754446E1,3.0093124E1,9.762429E1,9.791498E0,1.4153669E1,5.5325825E1,1.340558E2,6.251692E1,3.0965352E0,8.415279E0,2.4472277E1,2.913545E0,1.7243276E0,8.709995E1,2.35375E1,2.26773E1,2.1324213E0,1.0304334E2,5.51862E1,5.963909E1,8.278469E1,1.3018379E1,2.1569958E1,4.176529E1,6.981974E1,4.3776253E1,8.278592E1,3.0550352E1,3.6749714E1,1.868627E2,1.9078445E2,9.1274925E1,2.1949294E2,7.842143E1,2.5044838E2,8.767156E0,4.05399E0,5.784795E2,3.2917532E2,1.3449702E1,1.793303E1,3.7327972E1,4.5891544E1,1.4082983E1,4.1121372E1],"tree_param":{"num_deleted":"0","num_feature":"20","num_nodes":"123","size_leaf_vector":"1"}},{"base_weights":[1.2865234E-2,-6.147486E-1,4.2027763E-1,-8.230979E-1,-1.3701347E-1,-1.1839707E-1,6.3846654E-1,-1.0392547E0,-6.206517E-1,-3.804365E-1,2.3039137E-1,-5.0689745E-1,1.0604469E-1,2.8324392E-1,8.0879337E-1,-1.1257135E0,-8.770171E-1,-9.734174E-1,-4.4298398E-1,-7.118379E-1,-1.8920742E-1,5.1323223E-1,8.473545E-3,-8.15198E-1,-3.7104678E-1,1.6044539E-1,-8.782012E-1,-2.0365974E-2,4.9094293E-1,6.105901E-1,9.3329793E-1,-6.224138E-1,-1.1449499E0,-4.2461896E-1,-9.355223E-1,-8.0729526E-1,-3.267033E-1,-8.239958E-1,-2.1734571E-1,-1.0762182E0,-5.27885E-1,4.078476E-3,-5.1906747E-1,-4.6749398E-1,5.71834E-1,-7.3759073E-1,1.4269179E-1,-1.1437105E0,-6.229541E-1,-6.2779844E-1,-1.6261151E-1,3.362877E-1,-8.943289E-2,-1.5240848E0,-5.728218E-1,9.908681E-2,-7.69683E-1,6.668661E-1,1.1338021E-1,3.2080874E-1,7.8781646E-1,7.170602E-1,9.9480283E-1,6.950774E-2,-2.4943386E-1,-3.634359E-1,-3.2336783E-1,-1.849524E-1,2.6851133E-1,-3.3169645E-1,-2.2606184E-1,-2.793639E-1,-1.5016672E-1,-1.43986E-1,-2.9149878E-1,6.634815E-2,-1.516854E-1,-1.5690918E-1,-3.4688413E-1,-2.0059022E-1,-2.7497377E-2,3.944827E-2,-2.168776E-1,-2.5447655E-1,-2.0245668E-2,-2.8277373E-1,2.3656724E-1,1.4102836E-1,3.1308222E-1,7.7919506E-2,-2.8394228E-1,-8.576065E-2,9.648649E-2,-2.6898858E-1,-4.0209672E-1,-2.7644533E-1,-8.2248434E-2,-3.0534777E-1,-1.5155345E-1,3.1019928E-2,-1.2713033E-1,-6.2415417E-2,1.3148284E-1,-1.2768772E-1,4.9531423E-2,-1.2546949E-1,-4.9875575E-1,-2.4618572E-1,4.9812544E-2,-1.2866715E-1,9.4661385E-2,-2.728126E-1,7.310114E-2,8.5191295E-2,2.511521E-1,1.1933384E-1,-8.8243246E-2,1.1392659E-1,-2.4493757E-1,1.2592928E-1,2.678719E-1,9.644442E-2,2.5316247E-1,3.2553172E-1,2.7191848E-1],"categories":[],"categories_nodes":[],"categories_segments":[],"categories_sizes":[],"default_left":[0,0,0,0,0,0,0,0,0,0,0,0,0,0,0,0,0,0,0,0,0,0,0,0,0,0,0,0,0,0,0,0,0,0,0,0,0,0,0,0,0,0,0,0,0,0,0,0,0,0,0,0,0,0,0,0,0,0,0,0,0,0,0,0,0,0,0,0,0,0,0,0,0,0,0,0,0,0,0,0,0,0,0,0,0,0,0,0,0,0,0,0,0,0,0,0,0,0,0,0,0,0,0,0,0,0,0,0,0,0,0,0,0,0,0,0,0,0,0,0,0,0,0,0,0],"id":3,"left_children":[1,3,5,7,9,11,13,15,17,19,21,23,25,27,29,31,33,35,37,39,41,43,45,47,49,51,53,55,57,59,61,63,65,67,69,71,-1,73,75,77,79,81,83,85,87,89,91,93,95,97,99,101,103,105,107,109,111,113,115,117,119,121,123,-1,-1,-1,-1,-1,-1,-1,-1,-1,-1,-1,-1,-1,-1,-1,-1,-1,-1,-1,-1,-1,-1,-1,-1,-1,-1,-1,-1,-1,-1,-1,-1,-1,-1,-1,-1,-1,-1,-1,-1,-1,-1,-1,-1,-1,-1,-1,-1,-1,-1,-1,-1,-1,-1,-1,-1,-1,-1,-1,-1,-1,-1],"loss_changes":[1.1040066E3,1.6905164E2,3.0778607E2,5.1132935E1,4.6353367E1,6.593749E1,1.12519714E2,7.0186157E0,3.8018127E1,1.9608315E1,1.2974616E1,1.1292641E1,2.5827858E1,3.819153E1,3.0499023E1,2.8580017E0,4.974289E0,3.050583E0,3.505394E1,7.0481834E0,1.2683847E1,5.4911995E0,1.1809571E1,4.582554E0,1.0280247E1,2.004247E1,4.1134834E0,2.217707E1,2.3807777E1,2.484198E1,9.545715E0,3.0078073E0,2.7304077E-1,6.9005265E0,4.7050476E0,2.8725586E0,0E0,7.259491E0,3.282052E1,1.0408745E0,4.695305E0,1.1804538E1,1.0868523E1,4.1298304E0,3.6477242E0,3.992279E0,7.752591E0,2.4371338E-1,5.483324E0,3.6264E0,7.5762663E0,1.494413E1,1.6236406E1,4.5495796E-1,3.5724015E0,2.4574425E1,5.0435925E0,1.5743744E1,1.3502568E1,1.2854221E1,1.1325958E1,8.477509E0,3.7904663E0,0E0,0E0,0E0,0E0,0E0,0E0,0E0,0E0,0E0,0E0,0E0,0E0,0E0,0E0,0E0,0E0,0E0,0E0,0E0,0E0,0E0,0E0,0E0,0E0,0E0,0E0,0E0,0E0,0E0,0E0,0E0,0E0,0E0,0E0,0E0,0E0,0E0,0E0,0E0,0E0,0E0,0E0,0E0,0E0,0E0,0E0,0E0,0E0,0E0,0E0,0E0,0E0,0E0,0E0,0E0,0E0,0E0,0E0,0E0,0E0,0E0,0E0],"parents":[2147483647,0,0,1,1,2,2,3,3,4,4,5,5,6,6,7,7,8,8,9,9,10,10,11,11,12,12,13,13,14,14,15,15,16,16,17,17,18,18,19,19,20,20,21,21,22,22,23,23,24,24,25,25,26,26,27,27,28,28,29,29,30,30,31,31,32,32,33,33,34,34,35,35,37,37,38,38,39,39,40,40,41,41,42,42,43,43,44,44,45,45,46,46,47,47,48,48,49,49,50,50,51,51,52,52,53,53,54,54,55,55,56,56,57,57,58,58,59,59,60,60,61,61,62,62],"right_children":[2,4,6,8,10,12,14,16,18,20,22,24,26,28,30,32,34,36,38,40,42,44,46,48,50,52,54,56,58,60,62,64,66,68,70,72,-1,74,76,78,80,82,84,86,88,90,92,94,96,98,100,102,104,106,108,110,112,114,116,118,120,122,124,-1,-1,-1,-1,-1,-1,-1,-1,-1,-1,-1,-1,-1,-1,-1,-1,-1,-1,-1,-1,-1,-1,-1,-1,-1,-1,-1,-1,-1,-1,-1,-1,-1,-1,-1,-1,-1,-1,-1,-1,-1,-1,-1,-1,-1,-1,-1,-1,-1,-1,-1,-1,-1,-1,-1,-1,-1,-1,-1,-1,-1,-1],"split_conditions":[2E0,4E0,1.5E0,2.9889834E0,4E0,2.9889834E0,2.9889834E0,3E0,2E0,6E0,2.5E1,1E0,3.4E1,4E0,2E0,1.9E1,2E0,2.5E1,6E0,1E0,4E0,1E0,3E0,7.12E0,7E0,4E0,7.02E0,3.3E1,4E0,7E0,5E0,5.86E0,7E0,1.2E1,2E0,8.65E0,-3.267033E-1,3E0,2.5E1,2E0,8.65E0,3.3E1,8.03E0,8.28E0,2.6E1,2E0,1E0,7.2246E4,2E0,6E0,2.6E1,3E0,2E0,2.8582E4,3E0,1E0,9.6E0,6E0,2.8E1,3.4E1,1E0,1E0,2.5E1,6.950774E-2,-2.4943386E-1,-3.634359E-1,-3.2336783E-1,-1.849524E-1,2.6851133E-1,-3.3169645E-1,-2.2606184E-1,-2.793639E-1,-1.5016672E-1,-1.43986E-1,-2.9149878E-1,6.634815E-2,-1.516854E-1,-1.5690918E-1,-3.4688413E-1,-2.0059022E-1,-2.7497377E-2,3.944827E-2,-2.168776E-1,-2.5447655E-1,-2.0245668E-2,-2.8277373E-1,2.3656724E-1,1.4102836E-1,3.1308222E-1,7.7919506E-2,-2.8394228E-1,-8.576065E-2,9.648649E-2,-2.6898858E-1,-4.0209672E-1,-2.7644533E-1,-8.2248434E-2,-3.0534777E-1,-1.5155345E-1,3.1019928E-2,-1.2713033E-1,-6.2415417E-2,1.3148284E-1,-1.2768772E-1,4.9531423E-2,-1.2546949E-1,-4.9875575E-1,-2.4618572E-1,4.9812544E-2,-1.2866715E-1,9.4661385E-2,-2.728126E-1,7.310114E-2,8.5191295E-2,2.511521E-1,1.1933384E-1,-8.8243246E-2,1.1392659E-1,-2.4493757E-1,1.2592928E-1,2.678719E-1,9.644442E-2,2.5316247E-1,3.2553172E-1,2.7191848E-1],"split_indices":[14,6,18,16,16,16,16,6,6,15,2,12,2,6,18,2,9,2,15,12,9,15,15,8,15,9,8,2,9,15,15,8,15,15,17,8,0,9,2,9,8,2,8,8,3,9,12,0,11,8,2,15,6,0,11,12,8,15,2,2,12,12,2,0,0,0,0,0,0,0,0,0,0,0,0,0,0,0,0,0,0,0,0,0,0,0,0,0,0,0,0,0,0,0,0,0,0,0,0,0,0,0,0,0,0,0,0,0,0,0,0,0,0,0,0,0,0,0,0,0,0,0,0,0,0],"split_type":[0,0,0,0,0,0,0,0,0,0,0,0,0,0,0,0,0,0,0,0,0,0,0,0,0,0,0,0,0,0,0,0,0,0,0,0,0,0,0,0,0,0,0,0,0,0,0,0,0,0,0,0,0,0,0,0,0,0,0,0,0,0,0,0,0,0,0,0,0,0,0,0,0,0,0,0,0,0,0,0,0,0,0,0,0,0,0,0,0,0,0,0,0,0,0,0,0,0,0,0,0,0,0,0,0,0,0,0,0,0,0,0,0,0,0,0,0,0,0,0,0,0,0,0,0],"sum_hessian":[4.3156147E3,1.6985343E3,2.6170803E3,1.1822222E3,5.1631226E2,7.545847E2,1.8624955E3,5.6975104E2,6.1247107E2,3.105336E2,2.0577864E2,2.7584637E2,4.7873834E2,6.0448444E2,1.2580111E3,3.678042E2,2.0194687E2,2.0364586E2,4.088252E2,1.1262729E2,1.9790633E2,8.9893715E1,1.15884926E2,8.284244E1,1.9300392E2,4.5445685E2,2.428151E1,2.4591426E2,3.585702E2,4.8763376E2,7.703773E2,1.4768081E1,3.5303613E2,2.4071236E1,1.7787563E2,8.683587E1,1.1680999E2,1.5107266E2,2.5775253E2,3.6156567E1,7.647072E1,1.2540893E2,7.249739E1,4.6751733E0,8.521854E1,1.6983751E1,9.890118E1,2.875527E1,5.4087166E1,8.557734E1,1.0742658E2,2.6654218E2,1.8791467E2,6.5138316E0,1.7767677E1,2.1285037E2,3.3063896E1,2.4407744E2,1.1449274E2,1.8612029E2,3.0151346E2,1.733999E2,5.969774E2,2.8823583E0,1.1885722E1,1.686817E2,1.8435442E2,2.1480606E1,2.5906305E0,8.9307785E1,8.856784E1,6.0399586E1,2.6436281E1,4.6645485E1,1.04427185E2,1.02328316E2,1.5542421E2,5.5236707E0,3.0632895E1,5.7413456E1,1.9057266E1,1.0740423E2,1.8004696E1,4.1423027E1,3.1074366E1,3.5732195E0,1.1019537E0,7.174329E1,1.3475242E1,2.8989882E0,1.4084763E1,2.895425E1,6.994692E1,1.5206138E1,1.3549133E1,2.8258713E1,2.5828453E1,1.872302E1,6.6854324E1,5.351786E1,5.3908722E1,4.1895397E1,2.2464676E2,8.068023E1,1.0723445E2,1.1720794E0,5.341752E0,1.3222511E1,4.545166E0,6.160332E1,1.5124706E2,2.914836E1,3.9155376E0,7.596222E1,1.6811522E2,6.744723E1,4.7045517E1,1.7758199E2,8.538303E0,6.80786E1,2.3343488E2,4.2952187E1,1.3044772E2,2.8974673E2,3.0723068E2],"tree_param":{"num_deleted":"0","num_feature":"20","num_nodes":"125","size_leaf_vector":"1"}},{"base_weights":[1.0235557E-2,-4.891994E-1,3.3359092E-1,-8.1243026E-1,-2.6495743E-1,-8.951074E-2,5.215189E-1,-8.88363E-1,-3.8793895E-1,-3.7855616E-1,2.3941192E-1,-2.2094376E-1,3.7205374E-1,2.911113E-1,7.830172E-1,-7.974894E-1,-3.2044774E-1,-7.9633176E-1,-1.8991432E-1,-5.222781E-1,-3.05088E-3,-1.3928546E-1,4.1005164E-1,-1.3526945E-1,-6.831909E-1,5.782668E-1,1.7567217E-2,1.4137004E-1,6.420551E-1,9.4540644E-1,6.3051015E-1,-1.031492E0,-6.776998E-1,-9.6895975E-1,-2.4596585E-1,-3.3708224E-1,5.0308794E-1,-8.1167823E-1,-3.7069035E-1,8.674095E-2,-6.265608E-1,-7.3411846E-1,1.0902013E-1,1.6188295E-1,7.3079276E-1,-5.283774E-1,-2.288538E-2,-9.077308E-2,-7.91305E-1,1.6471879E-1,6.755221E-1,-8.437979E-2,6.0575444E-1,-3.2286838E-1,2.6379824E-1,8.00182E-1,4.0936413E-1,7.1820074E-1,9.9316216E-1,2.2752729E-1,7.5101775E-1,-9.97515E-2,-3.111518E-1,-2.6202703E-1,-1.2745355E-1,3.1361893E-2,-3.081135E-1,-1.5211454E-1,1.5773326E-1,-1.9530079E-1,-1.6029142E-2,2.1069284E-1,-2.407401E-1,-2.0909306E-1,-3.033548E-1,-1.3497732E-2,-1.9364983E-1,1.7182288E-1,4.4650384E-3,-2.2911754E-1,1.0432807E-1,1.8399958E-1,-2.7586618E-1,1.3130212E-1,-1.2768206E-1,1.12933226E-1,-1.5842372E-1,2.9655746E-1,8.2274005E-2,-2.7668548E-1,-1.0707766E-1,-6.681057E-2,4.6771504E-2,1.536573E-1,-1.2673417E-1,-2.6070097E-1,-8.866684E-2,-1.872743E-1,1.2796786E-1,2.632132E-1,1.15322985E-1,-1.8396106E-1,2.18299E-2,-2.2628773E-2,2.6454854E-1,-3.2414037E-1,-2.4569066E-2,1.6719396E-1,2.1945108E-2,2.4450399E-1,-1.13125436E-1,-5.6687813E-2,1.8184978E-1,2.3438326E-1,9.267786E-2,2.6380458E-1,3.2021296E-1,1.7685975E-1,-2.1026725E-2,2.6542246E-1,1.4457986E-1],"categories":[],"categories_nodes":[],"categories_segments":[],"categories_sizes":[],"default_left":[0,0,0,0,0,0,0,0,0,0,0,0,0,0,0,0,0,0,0,0,0,0,0,0,0,0,0,0,0,0,0,0,0,0,0,0,0,0,0,0,0,0,0,0,0,0,0,0,0,0,0,0,0,0,0,0,0,0,0,0,0,0,0,0,0,0,0,0,0,0,0,0,0,0,0,0,0,0,0,0,0,0,0,0,0,0,0,0,0,0,0,0,0,0,0,0,0,0,0,0,0,0,0,0,0,0,0,0,0,0,0,0,0,0,0,0,0,0,0,0,0],"id":4,"left_children":[1,3,5,7,9,11,13,15,17,19,21,23,25,27,29,31,-1,33,35,37,39,41,43,45,47,49,51,53,55,57,59,61,63,65,67,69,71,73,75,77,79,81,83,85,87,89,91,93,95,97,99,101,103,105,107,109,111,113,115,117,119,-1,-1,-1,-1,-1,-1,-1,-1,-1,-1,-1,-1,-1,-1,-1,-1,-1,-1,-1,-1,-1,-1,-1,-1,-1,-1,-1,-1,-1,-1,-1,-1,-1,-1,-1,-1,-1,-1,-1,-1,-1,-1,-1,-1,-1,-1,-1,-1,-1,-1,-1,-1,-1,-1,-1,-1,-1,-1,-1,-1],"loss_changes":[6.35432E2,1.1186597E2,1.8994998E2,2.0055054E1,5.2484573E1,4.4695755E1,9.94234E1,7.9069824E0,7.758627E0,4.0298485E1,1.0959423E1,2.260153E1,1.1932165E1,4.6197258E1,1.8575043E1,9.393387E0,0E0,2.7663784E0,7.021289E0,2.3390121E1,1.1682774E1,7.9307823E0,9.159536E0,2.1400848E1,5.6512527E0,4.0416183E0,3.7158306E0,3.524821E1,9.354904E0,3.3328552E0,1.9361038E1,1.3157654E-1,1.1558563E1,1.5872993E0,2.0581136E0,4.952809E0,3.7286847E0,3.5239487E0,3.1856121E1,6.3626113E0,3.776041E0,4.507612E0,6.9281936E0,1.0117158E1,5.6781826E0,6.9453278E0,1.3537884E1,3.2001653E0,2.6488342E0,4.60079E0,4.556061E0,4.4461584E0,1.787287E0,2.3563583E1,2.7385303E1,3.0246887E0,1.2892735E1,1.5238838E0,1.6420593E0,1.0171071E1,1.0698853E1,0E0,0E0,0E0,0E0,0E0,0E0,0E0,0E0,0E0,0E0,0E0,0E0,0E0,0E0,0E0,0E0,0E0,0E0,0E0,0E0,0E0,0E0,0E0,0E0,0E0,0E0,0E0,0E0,0E0,0E0,0E0,0E0,0E0,0E0,0E0,0E0,0E0,0E0,0E0,0E0,0E0,0E0,0E0,0E0,0E0,0E0,0E0,0E0,0E0,0E0,0E0,0E0,0E0,0E0,0E0,0E0,0E0,0E0,0E0,0E0],"parents":[2147483647,0,0,1,1,2,2,3,3,4,4,5,5,6,6,7,7,8,8,9,9,10,10,11,11,12,12,13,13,14,14,15,15,17,17,18,18,19,19,20,20,21,21,22,22,23,23,24,24,25,25,26,26,27,27,28,28,29,29,30,30,31,31,32,32,33,33,34,34,35,35,36,36,37,37,38,38,39,39,40,40,41,41,42,42,43,43,44,44,45,45,46,46,47,47,48,48,49,49,50,50,51,51,52,52,53,53,54,54,55,55,56,56,57,57,58,58,59,59,60,60],"right_children":[2,4,6,8,10,12,14,16,18,20,22,24,26,28,30,32,-1,34,36,38,40,42,44,46,48,50,52,54,56,58,60,62,64,66,68,70,72,74,76,78,80,82,84,86,88,90,92,94,96,98,100,102,104,106,108,110,112,114,116,118,120,-1,-1,-1,-1,-1,-1,-1,-1,-1,-1,-1,-1,-1,-1,-1,-1,-1,-1,-1,-1,-1,-1,-1,-1,-1,-1,-1,-1,-1,-1,-1,-1,-1,-1,-1,-1,-1,-1,-1,-1,-1,-1,-1,-1,-1,-1,-1,-1,-1,-1,-1,-1,-1,-1,-1,-1,-1,-1,-1,-1],"split_conditions":[2E0,3E0,1.5E0,5E0,5E0,5E0,4E0,3E1,1E0,5E0,1E0,3.2E1,2.8E1,5E0,2.5E1,1E0,-3.2044774E-1,1E1,9.6E0,1E0,3.3E1,1E0,9E0,1E0,2.1238E4,4E0,2.6E1,4E0,2.8E1,4E0,1E0,1.593E3,3E0,1.9E1,3E0,2E0,2.5E1,3E1,2E0,2E1,1.1868E5,2E1,3E0,3E1,4E0,1E0,8E0,7.48E0,1.2E1,1E0,4E0,4E0,3E1,6.25E0,3E0,9.97E0,1E0,5E0,2E0,3E0,4E0,-9.97515E-2,-3.111518E-1,-2.6202703E-1,-1.2745355E-1,3.1361893E-2,-3.081135E-1,-1.5211454E-1,1.5773326E-1,-1.9530079E-1,-1.6029142E-2,2.1069284E-1,-2.407401E-1,-2.0909306E-1,-3.033548E-1,-1.3497732E-2,-1.9364983E-1,1.7182288E-1,4.4650384E-3,-2.2911754E-1,1.0432807E-1,1.8399958E-1,-2.7586618E-1,1.3130212E-1,-1.2768206E-1,1.12933226E-1,-1.5842372E-1,2.9655746E-1,8.2274005E-2,-2.7668548E-1,-1.0707766E-1,-6.681057E-2,4.6771504E-2,1.536573E-1,-1.2673417E-1,-2.6070097E-1,-8.866684E-2,-1.872743E-1,1.2796786E-1,2.632132E-1,1.15322985E-1,-1.8396106E-1,2.18299E-2,-2.2628773E-2,2.6454854E-1,-3.2414037E-1,-2.4569066E-2,1.6719396E-1,2.1945108E-2,2.4450399E-1,-1.13125436E-1,-5.6687813E-2,1.8184978E-1,2.3438326E-1,9.267786E-2,2.6380458E-1,3.2021296E-1,1.7685975E-1,-2.1026725E-2,2.6542246E-1,1.4457986E-1],"split_indices":[14,6,18,16,16,16,16,2,12,6,12,2,2,6,2,12,0,15,8,12,2,11,15,11,0,15,3,15,2,15,12,0,16,2,11,6,3,2,12,2,0,2,11,2,9,12,15,8,15,12,9,15,2,8,9,8,12,9,18,9,9,0,0,0,0,0,0,0,0,0,0,0,0,0,0,0,0,0,0,0,0,0,0,0,0,0,0,0,0,0,0,0,0,0,0,0,0,0,0,0,0,0,0,0,0,0,0,0,0,0,0,0,0,0,0,0,0,0,0,0,0],"split_type":[0,0,0,0,0,0,0,0,0,0,0,0,0,0,0,0,0,0,0,0,0,0,0,0,0,0,0,0,0,0,0,0,0,0,0,0,0,0,0,0,0,0,0,0,0,0,0,0,0,0,0,0,0,0,0,0,0,0,0,0,0,0,0,0,0,0,0,0,0,0,0,0,0,0,0,0,0,0,0,0,0,0,0,0,0,0,0,0,0,0,0,0,0,0,0,0,0,0,0,0,0,0,0,0,0,0,0,0,0,0,0,0,0,0,0,0,0,0,0,0,0],"sum_hessian":[3.9326753E3,1.5453339E3,2.3873413E3,6.318862E2,9.134477E2,7.344106E2,1.6529308E3,5.3507886E2,9.680736E1,7.4573566E2,1.6771205E2,5.720403E2,1.623703E2,8.798252E2,7.731055E2,3.5904413E2,1.7603476E2,3.062566E1,6.61817E1,5.390336E2,2.0670201E2,5.215321E1,1.1555884E2,4.8368518E2,8.8355095E1,1.0225495E2,6.011536E1,6.1767676E2,2.6214844E2,3.7190396E2,4.0120157E2,1.18990845E2,2.4005327E2,2.2734251E1,7.8914094E0,5.5012646E1,1.1169051E1,1.8379366E2,3.5523996E2,1.8143446E2,2.5267542E1,1.4783003E1,3.7370205E1,6.599832E1,4.9560513E1,1.0671289E2,3.769723E2,1.3919885E1,7.443521E1,1.9981882E1,8.227306E1,5.19651E1,8.15026E0,1.2855788E2,4.891189E2,1.5462978E2,1.0751866E2,6.7378555E1,3.0452542E2,9.302149E1,3.0818005E2,1.4391562E0,1.1755169E2,1.3392987E2,1.061234E2,1.125914E0,2.1608337E1,6.1528645E0,1.7385452E0,2.549832E1,2.9514328E1,1.0091237E1,1.0778145E0,1.1955263E2,6.424103E1,1.6310046E2,1.9213951E2,2.247258E1,1.5896188E2,2.233884E1,2.9287007E0,1.5091774E0,1.3273826E1,2.3255562E1,1.4114646E1,5.0689533E1,1.5308791E1,3.0932877E1,1.8627634E1,3.1033875E1,7.5679016E1,1.779025E2,1.990698E2,4.7465944E0,9.17329E0,6.3698853E1,1.0736357E1,4.6342125E0,1.534767E1,4.7395485E1,3.4877583E1,1.1239643E1,4.0725456E1,2.5601463E0,5.590114E0,3.018242E1,9.837546E1,1.918421E2,2.972768E2,1.5300986E2,1.6199254E0,2.662185E1,8.089681E1,5.7593414E1,9.785138E0,1.2526705E2,1.7925836E2,4.1528057E1,5.1493435E1,2.0434253E2,1.0383753E2],"tree_param":{"num_deleted":"0","num_feature":"20","num_nodes":"121","size_leaf_vector":"1"}},{"base_weights":[9.128229E-3,-3.855724E-1,2.629239E-1,-6.867737E-1,-1.975842E-1,6.4985655E-2,5.738912E-1,-8.9240164E-1,-5.112401E-1,-4.4857433E-1,-1.5324845E-2,-4.9712084E-2,4.586019E-1,2.9708543E-1,7.2883165E-1,-2.9512784E-1,-9.20383E-1,-3.7847498E-1,-8.2754356E-1,-3.0617538E-1,-7.3852754E-1,-4.064284E-1,9.921623E-2,-3.8578558E-1,8.3645135E-2,6.5808606E-1,2.3568274E-1,5.4581076E-1,8.1819154E-2,6.1404437E-1,8.992212E-1,4.0518165E-1,-5.191442E-1,-1.0212733E0,-8.243627E-1,-7.0415187E-1,-1.6986671E-1,-8.714273E-1,-2.0189503E-1,-5.8910984E-1,-1.7742884E-1,-7.820465E-1,2.778919E-1,3.9382637E-1,-5.7518315E-1,2.041097E-1,-1.9153264E-1,-4.582996E-2,-5.773504E-1,3.2538638E-1,-1.4289235E-1,4.6964663E-1,8.506018E-1,-1.728819E-1,3.5326594E-1,7.195542E-1,2.1861546E-1,-3.2239693E-1,2.3293006E-1,3.274629E-1,7.1743286E-1,9.375754E-1,4.952561E-1,-1.1112344E-1,3.273603E-1,-2.3692827E-1,3.4148164E-2,-1.2590556E-1,-3.106239E-1,-2.8028455E-1,-1.8452677E-1,-2.4615817E-1,-1.3009161E-1,-1.9729714E-1,1.8009458E-2,-2.8014132E-1,-2.0494057E-1,1.2515116E-1,-2.0946063E-1,4.489707E-2,-2.0265873E-1,2.9561646E-2,-1.2945735E-1,-1.7531674E-1,-3.0334327E-1,-2.0286264E-1,2.0548898E-1,-1.9166169E-1,1.6235058E-1,-2.1629049E-1,-4.3216866E-2,-3.8824283E-2,1.0360526E-1,2.8782138E-1,-7.43542E-2,-1.8136148E-1,6.940663E-2,-3.0027324E-1,-1.3849461E-1,-2.9752495E-2,1.3685071E-1,-1.7626499E-1,9.825354E-3,1.5275449E-1,-2.0405774E-1,1.7701729E-1,2.791493E-1,-8.857106E-2,1.4744076E-1,4.5956887E-2,1.8579634E-1,1.4153099E-1,2.458643E-1,1.40549E-1,-9.129913E-2,1.605162E-1,-1.4954169E-1,9.540322E-2,-1.5915267E-1,1.8796843E-1,2.342498E-2,5.4172274E-2,2.3074092E-1,2.4243318E-1,3.0469096E-1,1.2494314E-2,2.2911085E-1],"categories":[],"categories_nodes":[],"categories_segments":[],"categories_sizes":[],"default_left":[0,0,0,0,0,0,0,0,0,0,0,0,0,0,0,0,0,0,0,0,0,0,0,0,0,0,0,0,0,0,0,0,0,0,0,0,0,0,0,0,0,0,0,0,0,0,0,0,0,0,0,0,0,0,0,0,0,0,0,0,0,0,0,0,0,0,0,0,0,0,0,0,0,0,0,0,0,0,0,0,0,0,0,0,0,0,0,0,0,0,0,0,0,0,0,0,0,0,0,0,0,0,0,0,0,0,0,0,0,0,0,0,0,0,0,0,0,0,0,0,0,0,0,0,0,0,0],"id":5,"left_children":[1,3,5,7,9,11,13,15,17,19,21,23,25,27,29,31,33,35,37,39,41,43,45,47,49,51,53,55,57,59,61,63,65,67,69,71,73,75,77,79,81,83,85,87,89,91,93,95,97,99,101,103,105,107,109,111,113,115,117,119,121,123,125,-1,-1,-1,-1,-1,-1,-1,-1,-1,-1,-1,-1,-1,-1,-1,-1,-1,-1,-1,-1,-1,-1,-1,-1,-1,-1,-1,-1,-1,-1,-1,-1,-1,-1,-1,-1,-1,-1,-1,-1,-1,-1,-1,-1,-1,-1,-1,-1,-1,-1,-1,-1,-1,-1,-1,-1,-1,-1,-1,-1,-1,-1,-1,-1],"loss_changes":[3.6333865E2,8.024036E1,1.3584418E2,1.921872E1,4.0039433E1,6.0974262E1,3.6603455E1,3.9012756E0,1.2134117E1,1.4977982E1,2.280562E1,4.6926846E1,1.3395988E1,1.654162E1,1.0199707E1,2.1942577E0,1.4641113E0,1.4189554E1,2.2069054E0,8.953451E0,5.55072E0,1.5799086E1,1.2051233E1,1.9342888E1,4.1114304E1,5.4144135E0,7.0495377E0,8.002903E0,1.0290083E1,9.590363E0,2.9306335E0,2.3337417E0,1.8061619E0,5.172272E-1,2.3502045E0,2.223011E0,1.4584496E1,3.1107712E-1,2.4389257E0,5.038391E0,1.2126549E1,4.656708E0,2.672452E0,3.491714E0,5.907099E0,1.3702571E1,7.039419E0,1.690885E1,8.856255E0,2.0205784E1,3.0308859E1,4.129471E0,1.0754776E0,2.8422842E0,5.935688E0,1.9255714E0,6.836063E0,7.200456E0,8.113174E0,6.6458473E0,6.6020966E0,1.1903839E0,2.53995E0,0E0,0E0,0E0,0E0,0E0,0E0,0E0,0E0,0E0,0E0,0E0,0E0,0E0,0E0,0E0,0E0,0E0,0E0,0E0,0E0,0E0,0E0,0E0,0E0,0E0,0E0,0E0,0E0,0E0,0E0,0E0,0E0,0E0,0E0,0E0,0E0,0E0,0E0,0E0,0E0,0E0,0E0,0E0,0E0,0E0,0E0,0E0,0E0,0E0,0E0,0E0,0E0,0E0,0E0,0E0,0E0,0E0,0E0,0E0,0E0,0E0,0E0,0E0,0E0],"parents":[2147483647,0,0,1,1,2,2,3,3,4,4,5,5,6,6,7,7,8,8,9,9,10,10,11,11,12,12,13,13,14,14,15,15,16,16,17,17,18,18,19,19,20,20,21,21,22,22,23,23,24,24,25,25,26,26,27,27,28,28,29,29,30,30,31,31,32,32,33,33,34,34,35,35,36,36,37,37,38,38,39,39,40,40,41,41,42,42,43,43,44,44,45,45,46,46,47,47,48,48,49,49,50,50,51,51,52,52,53,53,54,54,55,55,56,56,57,57,58,58,59,59,60,60,61,61,62,62],"right_children":[2,4,6,8,10,12,14,16,18,20,22,24,26,28,30,32,34,36,38,40,42,44,46,48,50,52,54,56,58,60,62,64,66,68,70,72,74,76,78,80,82,84,86,88,90,92,94,96,98,100,102,104,106,108,110,112,114,116,118,120,122,124,126,-1,-1,-1,-1,-1,-1,-1,-1,-1,-1,-1,-1,-1,-1,-1,-1,-1,-1,-1,-1,-1,-1,-1,-1,-1,-1,-1,-1,-1,-1,-1,-1,-1,-1,-1,-1,-1,-1,-1,-1,-1,-1,-1,-1,-1,-1,-1,-1,-1,-1,-1,-1,-1,-1,-1,-1,-1,-1,-1,-1,-1,-1,-1,-1],"split_conditions":[2E0,3E0,2E0,3E0,2.9889834E0,5E0,2.9889834E0,1.9E1,3E1,3E1,4E0,1E0,2.6E1,2.6E1,5E0,5.86E0,7E0,6E0,1.3258E5,1E0,9.89E0,2E0,3E1,2.4E1,2E0,9E0,2E0,4E0,1E0,1E0,3.3E1,5.58E0,2.2E1,3.931E3,8.28E0,9.2088E4,1E0,5E0,7.72E0,1.4893E4,2E0,4E0,9E0,8.363E3,8.81E0,1E0,6.662E3,2E0,1E0,2E0,2E0,9.95E0,2E0,2.6E1,1E1,5E0,2E0,2E0,3.4E1,2.5E1,2E0,5E0,8E0,-1.1112344E-1,3.273603E-1,-2.3692827E-1,3.4148164E-2,-1.2590556E-1,-3.106239E-1,-2.8028455E-1,-1.8452677E-1,-2.4615817E-1,-1.3009161E-1,-1.9729714E-1,1.8009458E-2,-2.8014132E-1,-2.0494057E-1,1.2515116E-1,-2.0946063E-1,4.489707E-2,-2.0265873E-1,2.9561646E-2,-1.2945735E-1,-1.7531674E-1,-3.0334327E-1,-2.0286264E-1,2.0548898E-1,-1.9166169E-1,1.6235058E-1,-2.1629049E-1,-4.3216866E-2,-3.8824283E-2,1.0360526E-1,2.8782138E-1,-7.43542E-2,-1.8136148E-1,6.940663E-2,-3.0027324E-1,-1.3849461E-1,-2.9752495E-2,1.3685071E-1,-1.7626499E-1,9.825354E-3,1.5275449E-1,-2.0405774E-1,1.7701729E-1,2.791493E-1,-8.857106E-2,1.4744076E-1,4.5956887E-2,1.8579634E-1,1.4153099E-1,2.458643E-1,1.40549E-1,-9.129913E-2,1.605162E-1,-1.4954169E-1,9.540322E-2,-1.5915267E-1,1.8796843E-1,2.342498E-2,5.4172274E-2,2.3074092E-1,2.4243318E-1,3.0469096E-1,1.2494314E-2,2.2911085E-1],"split_indices":[14,6,18,16,16,16,16,2,2,2,15,12,2,2,16,8,15,15,0,12,8,9,2,2,12,15,6,9,12,12,2,8,3,0,8,0,12,16,8,0,12,9,3,0,8,12,0,6,11,16,6,8,6,3,15,15,12,9,2,2,15,6,15,0,0,0,0,0,0,0,0,0,0,0,0,0,0,0,0,0,0,0,0,0,0,0,0,0,0,0,0,0,0,0,0,0,0,0,0,0,0,0,0,0,0,0,0,0,0,0,0,0,0,0,0,0,0,0,0,0,0,0,0,0,0,0,0],"split_type":[0,0,0,0,0,0,0,0,0,0,0,0,0,0,0,0,0,0,0,0,0,0,0,0,0,0,0,0,0,0,0,0,0,0,0,0,0,0,0,0,0,0,0,0,0,0,0,0,0,0,0,0,0,0,0,0,0,0,0,0,0,0,0,0,0,0,0,0,0,0,0,0,0,0,0,0,0,0,0,0,0,0,0,0,0,0,0,0,0,0,0,0,0,0,0,0,0,0,0,0,0,0,0,0,0,0,0,0,0,0,0,0,0,0,0,0,0,0,0,0,0,0,0,0,0,0,0],"sum_hessian":[3.6250889E3,1.4185125E3,2.2065764E3,5.4409344E2,8.74419E2,1.3490698E3,8.575066E2,2.4868675E2,2.954067E2,3.6723578E2,5.071832E2,1.0453375E3,3.0373224E2,3.0877963E2,5.487269E2,1.1645975E1,2.3704077E2,2.0961818E2,8.578852E1,2.4766226E2,1.1957352E2,1.1431234E2,3.9287088E2,2.9642474E2,7.489128E2,1.5926144E2,1.444708E2,1.4254417E2,1.6623547E2,3.3060812E2,2.1811882E2,2.62648E0,9.019495E0,1.1089031E2,1.2615046E2,8.09166E1,1.2870157E2,7.9798515E1,5.9900093E0,7.63341E1,1.7132817E2,1.14885185E2,4.688331E0,1.967543E1,9.463691E1,2.8893115E2,1.0393971E2,1.072808E2,1.8914395E2,3.6208774E2,3.8682507E2,8.222095E1,7.7040504E1,3.2181145E1,1.1228966E2,9.2321526E1,5.022264E1,4.4926155E1,1.2130931E2,8.875537E1,2.4185277E2,1.9799898E2,2.011984E1,1.4486905E0,1.1777897E0,6.1447167E0,2.8747785E0,3.2510996E0,1.0763921E2,8.0437126E1,4.571333E1,5.5155415E1,2.5761189E1,4.0631138E1,8.8070435E1,5.6967197E1,2.2831314E1,2.7363236E0,3.2536857E0,7.917604E0,6.841649E1,8.24228E1,8.890538E1,6.3580765E1,5.130442E1,1.204365E0,3.483966E0,2.0401766E0,1.7635254E1,7.021986E1,2.4417053E1,8.598103E1,2.0295012E2,4.100423E0,9.983929E1,3.5183083E1,7.209772E1,3.8940357E1,1.5020358E2,8.532802E1,2.767597E2,1.0886876E2,2.779563E2,8.002656E1,2.1943843E0,2.0048088E1,5.699242E1,2.764526E1,4.5358853E0,6.4991295E1,4.7298363E1,2.8188454E1,6.413307E1,3.4054413E1,1.6168228E1,7.3064523E0,3.76197E1,1.0967063E2,1.16386795E1,3.9667213E1,4.9088158E1,2.1640743E1,2.2021202E2,7.8747665E1,1.1925131E2,7.909645E0,1.22101965E1],"tree_param":{"num_deleted":"0","num_feature":"20","num_nodes":"127","size_leaf_vector":"1"}},{"base_weights":[7.5199115E-3,-3.0260786E-1,2.0568159E-1,-4.6782666E-1,-8.916781E-3,4.946266E-2,4.7467515E-1,-6.882025E-1,-3.093192E-1,3.478057E-1,-1.0607261E-1,1.5221378E-1,-2.502898E-1,3.005337E-1,7.120758E-1,-8.8260716E-1,-5.893014E-1,-6.191092E-1,-1.848247E-1,5.6763434E-1,6.633913E-2,-3.3364764E-1,2.188566E-2,-2.91047E-3,3.5614926E-1,1.5352895E-2,-3.956058E-1,6.418356E-1,2.0469366E-1,8.8821477E-1,5.647681E-1,-4.741355E-1,-9.307507E-1,-2.7571908E-1,-8.052961E-1,-4.497678E-1,-7.5927156E-1,-3.921757E-1,1.920718E-2,3.0436987E-1,7.058685E-1,-3.4119457E-1,3.474269E-1,3.1770967E-2,-4.6291003E-1,1.4384837E-1,-2.8560734E-1,-3.6760947E-1,1.018977E-1,-2.0751463E-2,4.5329186E-1,-5.1427156E-1,2.0022538E-1,-5.5415696E-1,-1.7278056E-1,7.502912E-1,3.4386337E-1,-1.2572105E-1,3.2750922E-1,6.2077224E-1,9.4927007E-1,3.3063844E-1,7.395628E-1,9.0608254E-2,-2.3500927E-1,-7.5910136E-2,-2.8344512E-1,3.4633562E-2,-1.606723E-1,-2.5032493E-1,-1.934375E-2,-2.0721444E-1,-8.16309E-2,-1.8597011E-1,-2.686388E-1,-7.5252764E-2,-2.4496652E-1,2.7923712E-1,-2.3441536E-2,-6.659037E-2,2.9406318E-1,2.5524303E-1,2.1962639E-2,-2.1595415E-1,6.804547E-2,1.7932539E-1,-7.666764E-2,-7.749671E-2,1.3475306E-1,-1.6692467E-1,1.8687759E-2,2.0651594E-1,2.4305543E-2,-6.4003984E-3,-1.5948898E-1,-3.1974944E-1,-9.206605E-2,1.4725074E-1,5.938912E-3,-1.3085665E-1,3.302616E-2,8.944695E-2,1.904098E-1,-2.6582754E-1,-3.4212783E-2,-1.02228396E-1,1.0681503E-1,-1.8551391E-1,3.605644E-2,-1.749765E-2,-1.6677353E-1,-4.7814425E-2,2.3448782E-1,-1.2015283E-1,2.2678813E-1,1.3428874E-2,-1.6058023E-1,1.5546244E-1,2.90316E-2,2.8662223E-1,1.0931786E-1,2.1838813E-1,2.9318047E-1,1.5202728E-1,-7.121059E-2,9.457243E-2,2.5877622E-1],"categories":[],"categories_nodes":[],"categories_segments":[],"categories_sizes":[],"default_left":[0,0,0,0,0,0,0,0,0,0,0,0,0,0,0,0,0,0,0,0,0,0,0,0,0,0,0,0,0,0,0,0,0,0,0,0,0,0,0,0,0,0,0,0,0,0,0,0,0,0,0,0,0,0,0,0,0,0,0,0,0,0,0,0,0,0,0,0,0,0,0,0,0,0,0,0,0,0,0,0,0,0,0,0,0,0,0,0,0,0,0,0,0,0,0,0,0,0,0,0,0,0,0,0,0,0,0,0,0,0,0,0,0,0,0,0,0,0,0,0,0,0,0,0,0,0,0],"id":6,"left_children":[1,3,5,7,9,11,13,15,17,19,21,23,25,27,29,31,33,35,37,39,41,43,45,47,49,51,53,55,57,59,61,63,65,67,69,71,73,75,77,79,81,83,85,87,89,91,93,95,97,99,101,103,105,107,109,111,113,115,117,119,121,123,125,-1,-1,-1,-1,-1,-1,-1,-1,-1,-1,-1,-1,-1,-1,-1,-1,-1,-1,-1,-1,-1,-1,-1,-1,-1,-1,-1,-1,-1,-1,-1,-1,-1,-1,-1,-1,-1,-1,-1,-1,-1,-1,-1,-1,-1,-1,-1,-1,-1,-1,-1,-1,-1,-1,-1,-1,-1,-1,-1,-1,-1,-1,-1,-1],"loss_changes":[2.076205E2,6.3906265E1,8.659493E1,2.923059E1,1.6506596E1,4.02349E1,3.1088562E1,6.2441406E0,1.8863861E1,6.270808E0,1.0905645E1,3.076806E1,1.288154E1,1.4212479E1,7.7925262E0,1.8520737E0,1.5775818E1,2.9965897E0,1.4918199E1,1.8636456E0,5.3698874E0,6.379979E0,9.060371E0,2.118929E1,1.5393478E1,1.1745238E1,7.5225945E0,2.833809E0,1.3994177E1,1.7594299E0,6.991955E0,3.6770082E0,7.455597E-1,1.0008408E1,2.952118E0,2.6434832E0,8.7789154E-1,1.028236E1,1.5921293E1,7.837849E0,3.302288E0,4.296415E0,4.322591E0,4.493148E0,4.926403E0,5.8584204E0,4.451078E0,4.919508E0,1.37411995E1,4.7802296E0,9.213745E0,4.519018E0,7.6119876E0,5.5111275E0,3.96249E0,2.0998116E0,8.700525E0,6.5798445E0,1.0991695E1,2.1933947E0,2.4871826E-3,7.8623667E0,4.9708443E0,0E0,0E0,0E0,0E0,0E0,0E0,0E0,0E0,0E0,0E0,0E0,0E0,0E0,0E0,0E0,0E0,0E0,0E0,0E0,0E0,0E0,0E0,0E0,0E0,0E0,0E0,0E0,0E0,0E0,0E0,0E0,0E0,0E0,0E0,0E0,0E0,0E0,0E0,0E0,0E0,0E0,0E0,0E0,0E0,0E0,0E0,0E0,0E0,0E0,0E0,0E0,0E0,0E0,0E0,0E0,0E0,0E0,0E0,0E0,0E0,0E0,0E0,0E0,0E0],"parents":[2147483647,0,0,1,1,2,2,3,3,4,4,5,5,6,6,7,7,8,8,9,9,10,10,11,11,12,12,13,13,14,14,15,15,16,16,17,17,18,18,19,19,20,20,21,21,22,22,23,23,24,24,25,25,26,26,27,27,28,28,29,29,30,30,31,31,32,32,33,33,34,34,35,35,36,36,37,37,38,38,39,39,40,40,41,41,42,42,43,43,44,44,45,45,46,46,47,47,48,48,49,49,50,50,51,51,52,52,53,53,54,54,55,55,56,56,57,57,58,58,59,59,60,60,61,61,62,62],"right_children":[2,4,6,8,10,12,14,16,18,20,22,24,26,28,30,32,34,36,38,40,42,44,46,48,50,52,54,56,58,60,62,64,66,68,70,72,74,76,78,80,82,84,86,88,90,92,94,96,98,100,102,104,106,108,110,112,114,116,118,120,122,124,126,-1,-1,-1,-1,-1,-1,-1,-1,-1,-1,-1,-1,-1,-1,-1,-1,-1,-1,-1,-1,-1,-1,-1,-1,-1,-1,-1,-1,-1,-1,-1,-1,-1,-1,-1,-1,-1,-1,-1,-1,-1,-1,-1,-1,-1,-1,-1,-1,-1,-1,-1,-1,-1,-1,-1,-1,-1,-1,-1,-1,-1,-1,-1,-1],"split_conditions":[2E0,4E0,2E0,2.9889834E0,2E0,3E1,4E0,1E0,2E0,2E0,6E0,4E0,3E0,2E0,2.5E1,1.6339E4,2E0,2.5E1,8E0,1.2E1,2.9889834E0,2.2E1,3E1,4E0,1E0,2E0,2E0,3E0,1E0,4E0,5E0,6.27E0,5.25E0,2.5E1,1.3536E5,5.6349E4,2E0,3.1E1,2E1,1E1,1.1E1,8.17E0,3E0,2E0,5E0,1.9E1,2E0,5.59E0,2E0,6.16E0,3E0,8E0,4E0,9.74E0,1.11751E5,3.931E3,6E0,3E1,2E0,5.9E4,1.9604E4,1.06344E5,5E0,9.0608254E-2,-2.3500927E-1,-7.5910136E-2,-2.8344512E-1,3.4633562E-2,-1.606723E-1,-2.5032493E-1,-1.934375E-2,-2.0721444E-1,-8.16309E-2,-1.8597011E-1,-2.686388E-1,-7.5252764E-2,-2.4496652E-1,2.7923712E-1,-2.3441536E-2,-6.659037E-2,2.9406318E-1,2.5524303E-1,2.1962639E-2,-2.1595415E-1,6.804547E-2,1.7932539E-1,-7.666764E-2,-7.749671E-2,1.3475306E-1,-1.6692467E-1,1.8687759E-2,2.0651594E-1,2.4305543E-2,-6.4003984E-3,-1.5948898E-1,-3.1974944E-1,-9.206605E-2,1.4725074E-1,5.938912E-3,-1.3085665E-1,3.302616E-2,8.944695E-2,1.904098E-1,-2.6582754E-1,-3.4212783E-2,-1.02228396E-1,1.0681503E-1,-1.8551391E-1,3.605644E-2,-1.749765E-2,-1.6677353E-1,-4.7814425E-2,2.3448782E-1,-1.2015283E-1,2.2678813E-1,1.3428874E-2,-1.6058023E-1,1.5546244E-1,2.90316E-2,2.8662223E-1,1.0931786E-1,2.1838813E-1,2.9318047E-1,1.5202728E-1,-7.121059E-2,9.457243E-2,2.5877622E-1],"split_indices":[14,6,18,16,9,2,16,12,6,1,15,16,9,9,2,0,12,2,15,3,16,2,2,15,11,6,1,11,12,15,6,8,8,2,0,0,11,2,2,15,15,8,11,1,16,2,11,8,9,8,6,15,15,8,0,0,15,2,12,0,0,0,15,0,0,0,0,0,0,0,0,0,0,0,0,0,0,0,0,0,0,0,0,0,0,0,0,0,0,0,0,0,0,0,0,0,0,0,0,0,0,0,0,0,0,0,0,0,0,0,0,0,0,0,0,0,0,0,0,0,0,0,0,0,0,0,0],"split_type":[0,0,0,0,0,0,0,0,0,0,0,0,0,0,0,0,0,0,0,0,0,0,0,0,0,0,0,0,0,0,0,0,0,0,0,0,0,0,0,0,0,0,0,0,0,0,0,0,0,0,0,0,0,0,0,0,0,0,0,0,0,0,0,0,0,0,0,0,0,0,0,0,0,0,0,0,0,0,0,0,0,0,0,0,0,0,0,0,0,0,0,0,0,0,0,0,0,0,0,0,0,0,0,0,0,0,0,0,0,0,0,0,0,0,0,0,0,0,0,0,0,0,0,0,0,0,0],"sum_hessian":[3.376378E3,1.3161089E3,2.060269E3,8.41898E2,4.7421088E2,1.3040952E3,7.561738E2,3.508136E2,4.9108438E2,1.0095592E2,3.7325494E2,9.715523E2,3.325429E2,4.3751077E2,3.1866306E2,1.1562047E2,2.3519315E2,1.3963817E2,3.5144623E2,5.6113735E1,4.4842182E1,1.3375786E2,2.394971E2,5.523733E2,4.1917902E2,1.1790423E2,2.1463867E2,9.467191E1,3.4283887E2,1.4283847E2,1.758246E2,1.3334336E1,1.0228613E2,9.685501E1,1.3833813E2,6.5142815E1,7.449535E1,1.7384799E2,1.7759822E2,2.0422081E1,3.5691654E1,1.8216803E1,2.6625378E1,3.5148617E1,9.860924E1,1.7186249E2,6.763461E1,1.2274666E2,4.2962665E2,8.606077E1,3.3311823E2,3.0046104E1,8.785812E1,1.2453729E2,9.010138E1,6.829571E1,2.6376207E1,9.289548E1,2.4994339E2,2.8623869E1,1.142146E2,7.639222E1,9.943237E1,3.805594E0,9.528742E0,2.4659352E0,9.98202E1,3.888162E1,5.7973396E1,1.3298438E2,5.353751E0,2.6421938E1,3.8720875E1,3.956161E1,3.493374E1,1.3160875E2,4.2239243E1,1.6309341E1,1.6128888E2,1.1858428E1,8.563653E0,2.875834E1,6.9333134E0,1.0769954E1,7.4468484E0,1.8820774E1,7.8046045E0,2.096161E1,1.4187006E1,8.365595E1,1.4953289E1,1.6748575E1,1.551139E2,3.31318E1,3.4502815E1,8.496529E0,1.1425013E2,7.4015434E1,3.556112E2,2.0053463E1,6.60073E1,1.8098642E2,1.5213182E2,1.4946533E1,1.5099572E1,1.93819E1,6.847622E1,1.1378383E2,1.0753466E1,7.0263405E1,1.9837973E1,2.138121E0,6.6157585E1,9.408931E0,1.6967278E1,6.622031E1,2.6675167E1,1.3616245E2,1.13780945E2,1.1234144E1,1.7389725E1,1.5858906E1,9.835569E1,5.839409E1,1.799813E1,2.3149689E1,7.6282684E1],"tree_param":{"num_deleted":"0","num_feature":"20","num_nodes":"127","size_leaf_vector":"1"}},{"base_weights":[6.321839E-3,-2.3531848E-1,1.5858588E-1,-3.26755E-1,1.4208342E-1,7.477159E-2,5.5026436E-1,-1.7608906E-1,-5.231851E-1,1.543212E-2,3.3124173E-1,2.089481E-1,-1.1782679E-1,8.705695E-2,6.380848E-1,-5.6205916E-1,-5.5360824E-2,-5.953109E-1,-2.0974158E-1,-1.8567285E-1,2.384471E-1,9.7279006E-1,2.4836645E-1,8.03203E-2,4.3534318E-1,2.1084237E-1,-2.3874561E-1,3.5600317E-1,-1.5977265E-1,3.497834E-1,7.655679E-1,-6.205338E-1,4.8813668E-1,-4.1553995E-1,1.12997666E-1,-6.8588024E-1,-3.73815E-1,-2.9558476E-2,-5.8409524E-1,2.8349698E-1,-3.2972795E-1,7.891904E-1,1.3520485E-1,-9.672425E-2,3.431067E-1,3.189883E-1,-2.8001034E-1,-3.2668218E-1,1.7459537E-1,6.796208E-1,3.0552474E-1,1.1471159E-2,4.2160025E-1,-7.635664E-1,-1.6813579E-1,-3.685372E-1,4.496339E-1,1.4170508E-1,-5.9827894E-1,5.830487E-1,7.094208E-3,7.9800993E-1,-5.454347E-2,-2.79929E-1,-1.4763592E-1,-9.587067E-2,2.9688784E-1,-1.9608267E-1,-7.84456E-2,1.12681486E-1,-4.4668164E-2,-2.4693754E-1,-1.569339E-1,-2.4259242E-1,-7.1762994E-2,-1.3530043E-1,4.742833E-2,-1.0693388E-1,-2.6381224E-1,-1.634945E-1,1.7029488E-1,-1.1563701E-1,1.2933008E-1,-2.1303998E-1,3.0977678E-1,-4.445576E-2,1.22934215E-1,1.4314288E-1,5.4085376E-3,-2.0541413E-1,9.6850514E-2,-1.4973508E-1,4.865442E-3,-4.3002874E-2,7.8734405E-2,2.1328366E-1,-7.902093E-2,1.6405256E-1,3.940121E-2,3.979953E-2,-1.1379349E-1,5.8137424E-2,2.2040808E-1,-4.1547003E-1,-1.7308821E-1,-1.7607598E-1,-1.99557E-2,9.384699E-2,-2.960899E-1,2.525336E-1,2.8176961E-2,-6.7327976E-2,3.2288635E-1,-4.7121775E-1,1.2769297E-2,5.2562777E-2,2.2099492E-1,1.1236419E-1,-1.2783991E-1,2.554189E-1,1.2750216E-1,7.744226E-2,-3.0098307E-1],"categories":[],"categories_nodes":[],"categories_segments":[],"categories_sizes":[],"default_left":[0,0,0,0,0,0,0,0,0,0,0,0,0,0,0,0,0,0,0,0,0,0,0,0,0,0,0,0,0,0,0,0,0,0,0,0,0,0,0,0,0,0,0,0,0,0,0,0,0,0,0,0,0,0,0,0,0,0,0,0,0,0,0,0,0,0,0,0,0,0,0,0,0,0,0,0,0,0,0,0,0,0,0,0,0,0,0,0,0,0,0,0,0,0,0,0,0,0,0,0,0,0,0,0,0,0,0,0,0,0,0,0,0,0,0,0,0,0,0,0,0,0,0],"id":7,"left_children":[1,3,5,7,9,11,13,15,17,19,21,23,25,27,29,31,33,35,37,39,41,43,45,47,49,51,53,55,57,59,61,63,65,67,69,71,73,75,77,79,81,83,85,-1,-1,87,89,91,93,95,97,99,101,103,105,107,109,111,113,115,117,119,121,-1,-1,-1,-1,-1,-1,-1,-1,-1,-1,-1,-1,-1,-1,-1,-1,-1,-1,-1,-1,-1,-1,-1,-1,-1,-1,-1,-1,-1,-1,-1,-1,-1,-1,-1,-1,-1,-1,-1,-1,-1,-1,-1,-1,-1,-1,-1,-1,-1,-1,-1,-1,-1,-1,-1,-1,-1,-1,-1,-1],"loss_changes":[1.1701971E2,4.2471848E1,6.4007965E1,2.9205978E1,5.7558427E0,4.158628E1,1.3927834E1,2.6144943E1,9.57843E0,6.5510736E0,4.8832064E0,2.757938E1,2.6320625E1,3.7706046E0,1.0346832E1,8.515572E0,2.606195E1,6.7322693E0,5.502564E0,5.2874966E0,3.8297625E0,2.7336597E0,3.324676E0,2.330673E1,1.068029E1,7.4877653E0,1.7796387E1,2.0029242E0,4.0324316E0,7.221527E0,5.3491516E0,4.6431656E0,3.4000728E0,4.8488827E0,2.021671E1,5.066368E0,5.8530073E0,4.523534E0,1.4703245E0,4.6859183E0,2.6787634E0,4.6462693E0,4.6912055E0,0E0,0E0,3.6540356E0,2.8449676E0,6.7667446E0,1.3797502E1,3.6826973E0,9.428442E0,4.4387693E0,6.038251E0,5.8188324E0,1.8158691E1,1.8462481E0,3.3291178E0,6.573232E0,7.7677536E0,3.2393303E0,6.1485863E0,3.4593048E0,2.7877493E0,0E0,0E0,0E0,0E0,0E0,0E0,0E0,0E0,0E0,0E0,0E0,0E0,0E0,0E0,0E0,0E0,0E0,0E0,0E0,0E0,0E0,0E0,0E0,0E0,0E0,0E0,0E0,0E0,0E0,0E0,0E0,0E0,0E0,0E0,0E0,0E0,0E0,0E0,0E0,0E0,0E0,0E0,0E0,0E0,0E0,0E0,0E0,0E0,0E0,0E0,0E0,0E0,0E0,0E0,0E0,0E0,0E0,0E0,0E0,0E0],"parents":[2147483647,0,0,1,1,2,2,3,3,4,4,5,5,6,6,7,7,8,8,9,9,10,10,11,11,12,12,13,13,14,14,15,15,16,16,17,17,18,18,19,19,20,20,21,21,22,22,23,23,24,24,25,25,26,26,27,27,28,28,29,29,30,30,31,31,32,32,33,33,34,34,35,35,36,36,37,37,38,38,39,39,40,40,41,41,42,42,45,45,46,46,47,47,48,48,49,49,50,50,51,51,52,52,53,53,54,54,55,55,56,56,57,57,58,58,59,59,60,60,61,61,62,62],"right_children":[2,4,6,8,10,12,14,16,18,20,22,24,26,28,30,32,34,36,38,40,42,44,46,48,50,52,54,56,58,60,62,64,66,68,70,72,74,76,78,80,82,84,86,-1,-1,88,90,92,94,96,98,100,102,104,106,108,110,112,114,116,118,120,122,-1,-1,-1,-1,-1,-1,-1,-1,-1,-1,-1,-1,-1,-1,-1,-1,-1,-1,-1,-1,-1,-1,-1,-1,-1,-1,-1,-1,-1,-1,-1,-1,-1,-1,-1,-1,-1,-1,-1,-1,-1,-1,-1,-1,-1,-1,-1,-1,-1,-1,-1,-1,-1,-1,-1,-1,-1,-1,-1,-1],"split_conditions":[2E0,5E0,2.5E0,2E0,4E0,4E0,2E0,4E0,5E0,2E0,2E1,1E1,2.2E1,3E0,6E0,9.93E0,1E0,1E1,2E0,2E0,5.71E0,1.0468E4,3.3E1,2E0,2.4E1,2E0,2E0,1.2112E4,8.619E4,2.8E1,3.4E1,2E0,3E0,2.9889834E0,2E0,2E0,2E0,6.29E0,8.7287E4,7E0,2.7E1,2E0,7.83E0,-9.672425E-2,3.431067E-1,2E0,2E0,9.0979E4,2E0,2.9E1,1.1E1,8.9E0,4E0,6.02E0,1E0,3.1E1,7.3233E4,6.9159E4,1.02105E5,1E0,2E0,5E0,2.6E1,-2.79929E-1,-1.4763592E-1,-9.587067E-2,2.9688784E-1,-1.9608267E-1,-7.84456E-2,1.12681486E-1,-4.4668164E-2,-2.4693754E-1,-1.569339E-1,-2.4259242E-1,-7.1762994E-2,-1.3530043E-1,4.742833E-2,-1.0693388E-1,-2.6381224E-1,-1.634945E-1,1.7029488E-1,-1.1563701E-1,1.2933008E-1,-2.1303998E-1,3.0977678E-1,-4.445576E-2,1.22934215E-1,1.4314288E-1,5.4085376E-3,-2.0541413E-1,9.6850514E-2,-1.4973508E-1,4.865442E-3,-4.3002874E-2,7.8734405E-2,2.1328366E-1,-7.902093E-2,1.6405256E-1,3.940121E-2,3.979953E-2,-1.1379349E-1,5.8137424E-2,2.2040808E-1,-4.1547003E-1,-1.7308821E-1,-1.7607598E-1,-1.99557E-2,9.384699E-2,-2.960899E-1,2.525336E-1,2.8176961E-2,-6.7327976E-2,3.2288635E-1,-4.7121775E-1,1.2769297E-2,5.2562777E-2,2.2099492E-1,1.1236419E-1,-1.2783991E-1,2.554189E-1,1.2750216E-1,7.744226E-2,-3.0098307E-1],"split_indices":[14,6,18,19,16,9,16,15,16,17,2,15,2,9,15,8,12,15,12,9,8,0,2,16,2,17,15,0,0,2,2,6,6,16,12,17,6,8,0,3,3,15,8,0,0,12,12,0,6,3,15,8,16,8,11,2,0,0,0,12,11,9,3,0,0,0,0,0,0,0,0,0,0,0,0,0,0,0,0,0,0,0,0,0,0,0,0,0,0,0,0,0,0,0,0,0,0,0,0,0,0,0,0,0,0,0,0,0,0,0,0,0,0,0,0,0,0,0,0,0,0,0,0],"split_type":[0,0,0,0,0,0,0,0,0,0,0,0,0,0,0,0,0,0,0,0,0,0,0,0,0,0,0,0,0,0,0,0,0,0,0,0,0,0,0,0,0,0,0,0,0,0,0,0,0,0,0,0,0,0,0,0,0,0,0,0,0,0,0,0,0,0,0,0,0,0,0,0,0,0,0,0,0,0,0,0,0,0,0,0,0,0,0,0,0,0,0,0,0,0,0,0,0,0,0,0,0,0,0,0,0,0,0,0,0,0,0,0,0,0,0,0,0,0,0,0,0,0,0],"sum_hessian":[3.1784626E3,1.2284263E3,1.9500363E3,9.8895715E2,2.394692E2,1.6072877E3,3.427485E2,5.607482E2,4.2820892E2,1.4408104E2,9.538815E1,9.472719E2,6.6001587E2,5.4943172E1,2.8780533E2,1.3273541E2,4.280128E2,3.473757E2,8.08332E1,7.5850174E1,6.8230865E1,9.684122E0,8.570403E1,6.0493115E2,3.4234073E2,1.773144E2,4.8270148E2,2.6081928E1,2.8861242E1,8.939142E1,1.9841391E2,1.2612209E2,6.6133184E0,1.3587001E2,2.921428E2,2.4507033E2,1.0230538E2,5.529681E1,2.5536386E1,1.7590876E1,5.82593E1,9.722477E0,5.850839E1,1.0255011E0,8.658621E0,7.5949104E1,9.754929E0,1.1330555E2,4.916256E2,1.17329056E2,2.2501167E2,9.16605E1,8.565391E1,5.6077927E1,4.2662357E2,2.6487901E0,2.3433138E1,1.7503942E1,1.1357301E1,5.2769993E1,3.6621426E1,1.9088963E2,7.5242805E0,3.4902435E1,9.121966E1,2.6721992E0,3.9411192E0,5.2105644E1,8.376436E1,1.4565527E2,1.4648752E2,1.3075829E2,1.1431206E2,2.2999752E1,7.930563E1,1.6603724E1,3.869309E1,1.5665796E1,9.87059E0,4.2580724E0,1.3332804E1,5.4742897E1,3.5164049E0,1.0900792E0,8.632399E0,2.9018549E1,2.948984E1,4.9402596E1,2.6546505E1,5.755399E0,3.9995291E0,7.508958E1,3.8215973E1,1.06298874E2,3.8532675E2,1.1379519E2,3.5338676E0,9.34323E1,1.3157938E2,7.0466995E1,2.11935E1,5.051662E1,3.5137283E1,1.1468887E1,4.460904E1,8.237267E1,3.442509E2,1.4953918E0,1.1533984E0,1.04958105E1,1.2937326E1,1.3122818E1,4.3811245E0,3.9350436E0,7.4222574E0,1.502267E1,3.7747322E1,1.9888186E1,1.6733238E1,1.6586717E2,2.5022459E1,6.2066107E0,1.3176697E0],"tree_param":{"num_deleted":"0","num_feature":"20","num_nodes":"123","size_leaf_vector":"1"}},{"base_weights":[5.2682734E-3,-3.333724E-1,7.797128E-2,-5.5535483E-1,-1.9743021E-1,-1.7235269E-1,1.7709109E-1,-6.2428683E-1,-2.0035595E-1,-4.1347232E-1,-7.814019E-2,5.6499742E-2,-3.1693465E-1,3.4482715E-1,1.2449283E-3,-5.3932333E-1,-8.228921E-1,-6.253196E-1,5.042003E-2,-1.8241718E-1,-6.595913E-1,-2.5307304E-1,1.7301047E-1,-2.876063E-1,1.6382056E-1,-6.5352243E-1,-1.8035403E-1,2.5819287E-1,6.3420844E-1,3.4625584E-1,-8.375925E-2,-5.9612167E-1,-1.2157549E-1,-3.676026E-2,-8.373623E-1,-1.1071015E-1,-3.045358E-1,3.5143405E-1,-5.3628564E-1,-4.9103352E-1,7.004631E-2,-7.186673E-1,-3.8370244E-2,-3.1489336E-1,2.9215568E-1,-1.833661E-1,4.2298946E-1,-2.0344424E-1,-1.2367709E0,6.37982E-2,5.6890875E-1,-5.459753E-1,-1.0245383E0,5.8998223E-2,-3.0678257E-1,5.5075016E-2,4.0836433E-1,7.268199E-1,1.4080256E-1,-1.1265959E-1,4.6313965E-1,2.3635656E-1,-1.8343219E-1,-2.3330651E-1,-1.1612931E-1,-2.0567895E-1,3.974355E-2,-2.904197E-1,-1.9816037E-1,-1.9370584E-1,1.6398993E-1,-1.5822165E-2,3.354543E-1,1.10858046E-1,-2.177873E-1,-3.6345288E-1,-9.6651115E-2,1.419976E-1,-1.1458451E-1,-1.1929783E-1,-2.610059E-1,2.4999174E-1,-1.7213571E-1,-1.7311065E-1,-5.4878365E-2,-9.133099E-2,2.4641971E-1,1.1351384E-3,-1.6544789E-1,1.5865758E-1,-6.83264E-2,-2.0172898E-1,-8.7975926E-4,-2.0948667E-2,-4.5609432E-1,1.5561484E-1,-6.609281E-3,2.275837E-1,7.798581E-2,-2.0930114E-1,-7.033297E-2,-3.5526696E-1,-1.1416585E-1,-1.0637683E-1,3.8124323E-2,-1.1652572E-1,2.5169395E-2,-9.969492E-2,4.289687E-2,1.8225572E-1,7.597544E-2,4.091482E-2,2.2821017E-1,1.7900534E-1,-4.7121577E-2,-1.9687133E-1,1.2260536E-1,1.1560536E-1,2.5491276E-1,1.3312696E-1,1.2854663E-2,-1.5030167E-1,-2.7727176E-2],"categories":[],"categories_nodes":[],"categories_segments":[],"categories_sizes":[],"default_left":[0,0,0,0,0,0,0,0,0,0,0,0,0,0,0,0,0,0,0,0,0,0,0,0,0,0,0,0,0,0,0,0,0,0,0,0,0,0,0,0,0,0,0,0,0,0,0,0,0,0,0,0,0,0,0,0,0,0,0,0,0,0,0,0,0,0,0,0,0,0,0,0,0,0,0,0,0,0,0,0,0,0,0,0,0,0,0,0,0,0,0,0,0,0,0,0,0,0,0,0,0,0,0,0,0,0,0,0,0,0,0,0,0,0,0,0,0,0,0,0,0,0,0],"id":8,"left_children":[1,3,5,7,9,11,13,15,17,19,21,23,25,27,29,31,33,35,37,39,41,43,45,47,49,51,53,55,57,59,61,63,65,-1,67,69,-1,71,73,75,77,79,81,83,85,87,89,91,93,95,97,99,101,103,105,107,109,111,113,115,117,119,121,-1,-1,-1,-1,-1,-1,-1,-1,-1,-1,-1,-1,-1,-1,-1,-1,-1,-1,-1,-1,-1,-1,-1,-1,-1,-1,-1,-1,-1,-1,-1,-1,-1,-1,-1,-1,-1,-1,-1,-1,-1,-1,-1,-1,-1,-1,-1,-1,-1,-1,-1,-1,-1,-1,-1,-1,-1,-1,-1,-1],"loss_changes":[7.478468E1,1.609143E1,6.2075714E1,4.8511925E0,8.588728E0,2.3503857E1,5.285007E1,2.42173E0,3.7123423E0,6.6335945E0,9.566563E0,1.0227256E1,1.98862E1,2.2826874E1,2.5712645E1,2.8184242E0,3.937645E-1,2.4737616E0,4.18796E0,4.9149733E0,2.068924E0,4.412017E0,8.058176E0,5.01256E0,8.503429E0,4.437237E0,9.426799E0,2.1556301E1,9.521088E0,9.348593E0,2.248809E1,3.7597694E0,2.3604236E0,0E0,4.656868E-1,2.7017179E0,0E0,4.884535E0,1.655596E0,3.0539932E0,6.6207066E0,2.18577E0,3.2864091E0,3.8933363E0,4.5349774E0,2.5945559E0,3.7685966E0,5.802718E0,1.6046009E0,6.655163E0,2.2415266E0,4.52549E0,2.32592E0,3.0947309E0,6.5266094E0,1.0328283E1,1.2405907E1,3.438591E0,4.7817507E0,1.04662075E1,3.8321247E0,6.701744E0,1.5473526E1,0E0,0E0,0E0,0E0,0E0,0E0,0E0,0E0,0E0,0E0,0E0,0E0,0E0,0E0,0E0,0E0,0E0,0E0,0E0,0E0,0E0,0E0,0E0,0E0,0E0,0E0,0E0,0E0,0E0,0E0,0E0,0E0,0E0,0E0,0E0,0E0,0E0,0E0,0E0,0E0,0E0,0E0,0E0,0E0,0E0,0E0,0E0,0E0,0E0,0E0,0E0,0E0,0E0,0E0,0E0,0E0,0E0,0E0,0E0,0E0],"parents":[2147483647,0,0,1,1,2,2,3,3,4,4,5,5,6,6,7,7,8,8,9,9,10,10,11,11,12,12,13,13,14,14,15,15,16,16,17,17,18,18,19,19,20,20,21,21,22,22,23,23,24,24,25,25,26,26,27,27,28,28,29,29,30,30,31,31,32,32,34,34,35,35,37,37,38,38,39,39,40,40,41,41,42,42,43,43,44,44,45,45,46,46,47,47,48,48,49,49,50,50,51,51,52,52,53,53,54,54,55,55,56,56,57,57,58,58,59,59,60,60,61,61,62,62],"right_children":[2,4,6,8,10,12,14,16,18,20,22,24,26,28,30,32,34,36,38,40,42,44,46,48,50,52,54,56,58,60,62,64,66,-1,68,70,-1,72,74,76,78,80,82,84,86,88,90,92,94,96,98,100,102,104,106,108,110,112,114,116,118,120,122,-1,-1,-1,-1,-1,-1,-1,-1,-1,-1,-1,-1,-1,-1,-1,-1,-1,-1,-1,-1,-1,-1,-1,-1,-1,-1,-1,-1,-1,-1,-1,-1,-1,-1,-1,-1,-1,-1,-1,-1,-1,-1,-1,-1,-1,-1,-1,-1,-1,-1,-1,-1,-1,-1,-1,-1,-1,-1,-1,-1],"split_conditions":[2E0,2E0,1E0,5E0,7.1E0,2.5E1,2E0,3E1,5.4655E4,2E0,4E0,1E0,5E0,5E0,2E0,2.6E1,5.27E0,2.399E4,2.9E1,1E0,1.27048E5,2.7E1,1.3E1,1.32038E5,5E0,5E0,3E0,7E0,3.2E1,1E0,2.2E1,2E0,2E0,-3.676026E-2,7.83E0,1.2641E4,-3.045358E-1,1E1,7.3233E4,6E0,1.6E1,3E0,1.1E1,2E0,2E0,2.9E1,9.79E0,5E0,4E0,2.1856E4,8.3808E4,4E0,5E0,3E0,5E0,5.9E0,2.5E1,1E0,3E0,4E0,1.19285E5,4E0,2E0,-2.3330651E-1,-1.1612931E-1,-2.0567895E-1,3.974355E-2,-2.904197E-1,-1.9816037E-1,-1.9370584E-1,1.6398993E-1,-1.5822165E-2,3.354543E-1,1.10858046E-1,-2.177873E-1,-3.6345288E-1,-9.6651115E-2,1.419976E-1,-1.1458451E-1,-1.1929783E-1,-2.610059E-1,2.4999174E-1,-1.7213571E-1,-1.7311065E-1,-5.4878365E-2,-9.133099E-2,2.4641971E-1,1.1351384E-3,-1.6544789E-1,1.5865758E-1,-6.83264E-2,-2.0172898E-1,-8.7975926E-4,-2.0948667E-2,-4.5609432E-1,1.5561484E-1,-6.609281E-3,2.275837E-1,7.798581E-2,-2.0930114E-1,-7.033297E-2,-3.5526696E-1,-1.1416585E-1,-1.0637683E-1,3.8124323E-2,-1.1652572E-1,2.5169395E-2,-9.969492E-2,4.289687E-2,1.8225572E-1,7.597544E-2,4.091482E-2,2.2821017E-1,1.7900534E-1,-4.7121577E-2,-1.9687133E-1,1.2260536E-1,1.1560536E-1,2.5491276E-1,1.3312696E-1,1.2854663E-2,-1.5030167E-1,-2.7727176E-2],"split_indices":[6,14,12,16,8,2,12,2,0,11,16,11,15,16,9,3,8,0,2,11,0,3,3,0,16,9,9,15,2,11,2,11,16,0,8,0,0,15,0,3,3,9,3,16,17,2,8,15,15,0,0,16,6,6,16,8,2,15,9,6,0,9,16,0,0,0,0,0,0,0,0,0,0,0,0,0,0,0,0,0,0,0,0,0,0,0,0,0,0,0,0,0,0,0,0,0,0,0,0,0,0,0,0,0,0,0,0,0,0,0,0,0,0,0,0,0,0,0,0,0,0,0,0],"split_type":[0,0,0,0,0,0,0,0,0,0,0,0,0,0,0,0,0,0,0,0,0,0,0,0,0,0,0,0,0,0,0,0,0,0,0,0,0,0,0,0,0,0,0,0,0,0,0,0,0,0,0,0,0,0,0,0,0,0,0,0,0,0,0,0,0,0,0,0,0,0,0,0,0,0,0,0,0,0,0,0,0,0,0,0,0,0,0,0,0,0,0,0,0,0,0,0,0,0,0,0,0,0,0,0,0,0,0,0,0,0,0,0,0,0,0,0,0,0,0,0,0,0,0],"sum_hessian":[3.0354778E3,5.3587225E2,2.4996055E3,2.0235616E2,3.335161E2,7.088042E2,1.7908014E3,1.6881744E2,3.353872E1,1.1776671E2,2.1574942E2,2.7466235E2,4.341418E2,9.160445E2,8.747569E2,1.20838295E2,4.797914E1,1.1892394E1,2.1646324E1,6.16403E1,5.6126404E1,1.27166824E2,8.8582596E1,6.489801E1,2.0976436E2,1.2422302E2,3.099188E2,7.0644336E2,2.0960109E2,1.7231195E2,7.0244495E2,1.05999306E2,1.483899E1,1.1628956E0,4.6816246E1,5.6790247E0,6.213369E0,1.4571371E1,7.074953E0,2.7310474E1,3.4329826E1,5.1109226E1,5.017178E0,1.1459592E2,1.2570911E1,3.6629333E1,5.195326E1,6.0727654E1,4.170357E0,1.6915495E2,4.0609406E1,9.822261E1,2.6000416E1,1.0730474E2,2.0261406E2,3.008664E2,4.05577E2,1.7607841E2,3.3522686E1,3.4985634E1,1.3732631E2,1.664601E2,5.3598486E2,5.5269463E1,5.0729843E1,4.0807533E0,1.0758237E1,2.4346079E1,2.2470167E1,3.1407073E0,2.5383174E0,1.0151457E1,4.419914E0,1.0607779E0,6.0141754E0,4.013188E0,2.3297287E1,1.8117672E1,1.6212154E1,1.7538548E1,3.357068E1,1.697391E0,3.3197873E0,3.7242714E1,7.73532E1,6.109132E0,6.46178E0,2.4939966E1,1.1689366E1,4.484479E1,7.108468E0,1.7482798E1,4.3244854E1,1.0588526E0,3.1115048E0,2.604829E1,1.4310666E2,2.4258764E1,1.6350641E1,6.522362E1,3.299899E1,2.0162064E1,5.838352E0,1.4572423E1,9.2732315E1,1.6759853E2,3.5015533E1,5.513529E1,2.4573111E2,1.763012E2,2.2927579E2,9.828184E0,1.6625023E2,1.2851291E1,2.0671394E1,1.7000923E1,1.7984713E1,1.1598398E2,2.134233E1,7.972175E1,8.673834E1,1.1838286E2,4.17602E2],"tree_param":{"num_deleted":"0","num_feature":"20","num_nodes":"123","size_leaf_vector":"1"}},{"base_weights":[3.2851289E-3,-1.7817402E-1,1.156295E-1,-1.2480349E-1,-5.180106E-1,5.3302884E-2,4.4306073E-1,3.553963E-2,-2.3140316E-1,-7.1441036E-1,-3.2142732E-1,8.4387295E-2,-4.7993878E-1,3.3675155E-1,7.9747856E-1,-3.9097378E-1,1.1419483E-1,-3.3480614E-1,-4.37617E-2,-4.467235E-1,-8.089785E-1,-4.2551672E-1,1.8659474E-1,-1.8430981E-1,1.3828951E-1,-8.633396E-1,-3.250559E-1,1.167878E-1,4.531656E-1,4.9427423E-1,8.80492E-1,-8.371995E-1,-2.6085353E-1,-3.1991627E-2,3.042522E-1,-4.5697275E-1,-1.6581528E-1,-1.7487697E-1,1.00981206E-1,-6.9801795E-1,2.2903973E-1,-8.29992E-1,-1.7469238E-2,-1.2638263E-1,-5.677441E-1,6.405917E-1,-5.841693E-1,-5.7087535E-1,-7.835114E-2,1.0188953E-2,2.763241E-1,-1.2136768E0,-4.1517842E-1,-4.737399E-1,1.7454055E-1,4.2342377E-1,-1.1290826E-1,8.590585E-2,5.647663E-1,-1.5245436E-1,8.0688184E-1,2.729818E-1,1.6573665E-1,-3.2253865E-2,-2.6793665E-1,-2.3975112E-3,-1.8327019E-1,-1.17528394E-1,2.9021254E-2,6.2006604E-2,2.652283E-1,-1.7716424E-1,-9.3067504E-2,-1.2864663E-1,-6.3464744E-3,-7.121564E-2,1.0599535E-1,-1.12704426E-1,7.153005E-2,-2.743295E-1,-9.9755116E-2,-6.9847785E-2,3.3613297E-1,-3.06512E-1,-2.0811833E-1,-1.3490012E-1,1.4341645E-1,-2.031149E-1,-2.2241503E-2,7.273347E-2,5.0558686E-1,-2.7931398E-1,1.366152E-1,-3.2455277E-1,-1.1588745E-1,-1.0278023E-1,2.5718703E-3,6.874066E-2,-3.311158E-2,1.2367332E-2,1.1060921E-1,-1.2839127E-1,-4.368822E-1,-2.4186134E-1,1.6523492E-1,-2.2005476E-2,-1.7642105E-1,1.4132428E-1,-2.778407E-1,-2.2001412E-2,1.6717099E-1,-2.544312E-1,2.192313E-2,-1.1475632E-1,9.29416E-2,1.9150352E-1,2.9808262E-2,1.3319948E-1,-3.2740626E-1,-1.9535331E-2,2.9036263E-1,-1.29159E-1,1.8791924E-1],"categories":[],"categories_nodes":[],"categories_segments":[],"categories_sizes":[],"default_left":[0,0,0,0,0,0,0,0,0,0,0,0,0,0,0,0,0,0,0,0,0,0,0,0,0,0,0,0,0,0,0,0,0,0,0,0,0,0,0,0,0,0,0,0,0,0,0,0,0,0,0,0,0,0,0,0,0,0,0,0,0,0,0,0,0,0,0,0,0,0,0,0,0,0,0,0,0,0,0,0,0,0,0,0,0,0,0,0,0,0,0,0,0,0,0,0,0,0,0,0,0,0,0,0,0,0,0,0,0,0,0,0,0,0,0,0,0,0,0,0,0,0,0],"id":9,"left_children":[1,3,5,7,9,11,13,15,17,19,21,23,25,27,29,31,33,35,37,39,41,43,45,47,49,51,53,55,57,59,61,63,65,67,69,71,73,75,77,79,81,83,-1,85,87,89,91,93,95,97,99,101,103,105,107,109,111,113,115,117,119,-1,121,-1,-1,-1,-1,-1,-1,-1,-1,-1,-1,-1,-1,-1,-1,-1,-1,-1,-1,-1,-1,-1,-1,-1,-1,-1,-1,-1,-1,-1,-1,-1,-1,-1,-1,-1,-1,-1,-1,-1,-1,-1,-1,-1,-1,-1,-1,-1,-1,-1,-1,-1,-1,-1,-1,-1,-1,-1,-1,-1,-1],"loss_changes":[5.9915848E1,2.0318916E1,3.7020805E1,1.6632862E1,5.647587E0,2.5336084E1,1.0663197E1,1.3103709E1,1.1323412E1,1.5455551E0,4.1984415E0,2.0923143E1,4.7199306E0,5.7065983E0,1.2314491E0,3.3139267E0,9.162695E0,7.699024E0,3.979538E0,3.878552E0,8.103714E-1,2.6916924E0,5.2525525E0,9.847684E0,2.1257656E1,3.205595E0,4.657236E0,5.625273E0,5.9655457E0,3.4613233E0,9.1638184E-1,4.4596958E-1,4.292777E0,8.703661E0,7.9251633E0,4.090172E0,6.062578E0,3.7125132E0,6.6321235E0,9.780979E-1,3.014725E0,6.7248154E-1,0E0,4.5563583E0,2.309536E0,3.4390333E0,2.4760551E0,4.4675674E0,4.3836007E0,1.6514002E1,1.2552395E1,1.8052025E0,4.93351E0,2.1417103E0,5.2848935E0,2.309235E0,6.360506E0,3.8287811E0,3.7841148E0,3.9687812E0,1.6480556E0,0E0,1.1566122E0,0E0,0E0,0E0,0E0,0E0,0E0,0E0,0E0,0E0,0E0,0E0,0E0,0E0,0E0,0E0,0E0,0E0,0E0,0E0,0E0,0E0,0E0,0E0,0E0,0E0,0E0,0E0,0E0,0E0,0E0,0E0,0E0,0E0,0E0,0E0,0E0,0E0,0E0,0E0,0E0,0E0,0E0,0E0,0E0,0E0,0E0,0E0,0E0,0E0,0E0,0E0,0E0,0E0,0E0,0E0,0E0,0E0,0E0,0E0,0E0],"parents":[2147483647,0,0,1,1,2,2,3,3,4,4,5,5,6,6,7,7,8,8,9,9,10,10,11,11,12,12,13,13,14,14,15,15,16,16,17,17,18,18,19,19,20,20,21,21,22,22,23,23,24,24,25,25,26,26,27,27,28,28,29,29,30,30,31,31,32,32,33,33,34,34,35,35,36,36,37,37,38,38,39,39,40,40,41,41,43,43,44,44,45,45,46,46,47,47,48,48,49,49,50,50,51,51,52,52,53,53,54,54,55,55,56,56,57,57,58,58,59,59,60,60,62,62],"right_children":[2,4,6,8,10,12,14,16,18,20,22,24,26,28,30,32,34,36,38,40,42,44,46,48,50,52,54,56,58,60,62,64,66,68,70,72,74,76,78,80,82,84,-1,86,88,90,92,94,96,98,100,102,104,106,108,110,112,114,116,118,120,-1,122,-1,-1,-1,-1,-1,-1,-1,-1,-1,-1,-1,-1,-1,-1,-1,-1,-1,-1,-1,-1,-1,-1,-1,-1,-1,-1,-1,-1,-1,-1,-1,-1,-1,-1,-1,-1,-1,-1,-1,-1,-1,-1,-1,-1,-1,-1,-1,-1,-1,-1,-1,-1,-1,-1,-1,-1,-1,-1,-1,-1],"split_conditions":[2E0,3.3E1,2.5E0,3E0,8E0,3.4E1,5E0,2E0,4E0,3.9481E4,1.17629E5,3E0,5E0,6E0,4E0,6.29E0,8.17E0,4E0,2E0,4E0,5E0,4.2948E4,7.75E0,6.1E0,2E0,1.7E1,5E0,2.6E1,2E0,1E0,3.4E1,1.7998E4,8.73E0,5E0,1.19797E5,2E0,5.0642E4,2.7E1,2E0,2E0,8.65E0,8.1583E4,-1.7469238E-2,4E0,5E0,7.49E0,5E0,1E0,1E0,3E0,1E0,1E0,5E0,6.38E0,9.12E0,1E0,6E0,1E0,5E0,3E0,1.8525E4,2.729818E-1,7.9E0,-3.2253865E-2,-2.6793665E-1,-2.3975112E-3,-1.8327019E-1,-1.17528394E-1,2.9021254E-2,6.2006604E-2,2.652283E-1,-1.7716424E-1,-9.3067504E-2,-1.2864663E-1,-6.3464744E-3,-7.121564E-2,1.0599535E-1,-1.12704426E-1,7.153005E-2,-2.743295E-1,-9.9755116E-2,-6.9847785E-2,3.3613297E-1,-3.06512E-1,-2.0811833E-1,-1.3490012E-1,1.4341645E-1,-2.031149E-1,-2.2241503E-2,7.273347E-2,5.0558686E-1,-2.7931398E-1,1.366152E-1,-3.2455277E-1,-1.1588745E-1,-1.0278023E-1,2.5718703E-3,6.874066E-2,-3.311158E-2,1.2367332E-2,1.1060921E-1,-1.2839127E-1,-4.368822E-1,-2.4186134E-1,1.6523492E-1,-2.2005476E-2,-1.7642105E-1,1.4132428E-1,-2.778407E-1,-2.2001412E-2,1.6717099E-1,-2.544312E-1,2.192313E-2,-1.1475632E-1,9.29416E-2,1.9150352E-1,2.9808262E-2,1.3319948E-1,-3.2740626E-1,-1.9535331E-2,2.9036263E-1,-1.29159E-1,1.8791924E-1],"split_indices":[14,2,18,9,15,2,16,6,6,0,0,15,15,15,15,8,8,16,17,6,13,0,8,8,17,3,16,2,16,12,2,0,8,15,0,17,0,3,16,17,8,0,0,6,16,8,6,11,12,9,12,15,16,8,8,11,3,12,9,15,0,0,8,0,0,0,0,0,0,0,0,0,0,0,0,0,0,0,0,0,0,0,0,0,0,0,0,0,0,0,0,0,0,0,0,0,0,0,0,0,0,0,0,0,0,0,0,0,0,0,0,0,0,0,0,0,0,0,0,0,0,0,0],"split_type":[0,0,0,0,0,0,0,0,0,0,0,0,0,0,0,0,0,0,0,0,0,0,0,0,0,0,0,0,0,0,0,0,0,0,0,0,0,0,0,0,0,0,0,0,0,0,0,0,0,0,0,0,0,0,0,0,0,0,0,0,0,0,0,0,0,0,0,0,0,0,0,0,0,0,0,0,0,0,0,0,0,0,0,0,0,0,0,0,0,0,0,0,0,0,0,0,0,0,0,0,0,0,0,0,0,0,0,0,0,0,0,0,0,0,0,0,0,0,0,0,0,0,0],"sum_hessian":[2.93707E3,1.1228506E3,1.8142194E3,9.716263E2,1.5122437E2,1.5250824E3,2.8913702E2,3.8827084E2,5.833554E2,7.432981E1,7.689455E1,1.4418726E3,8.3209755E1,2.2392107E2,6.521596E1,5.983587E1,3.2843497E2,3.7559384E2,2.0776158E2,2.0898333E1,5.343148E1,6.3953434E1,1.2941114E1,2.4051418E2,1.2013584E3,2.2626192E1,6.058356E1,7.8188156E1,1.4573291E2,1.5512204E1,4.970376E1,1.2282167E1,4.75537E1,1.8611362E2,1.4232135E2,2.1700952E2,1.585843E2,1.0890336E2,9.885823E1,1.5209484E1,5.688848E0,5.187397E1,1.5575085E0,2.1217384E1,4.273605E1,8.25036E0,4.6907554E0,5.079882E1,1.8971536E2,6.236577E2,5.777007E2,1.1740371E1,1.0885822E1,4.6728523E1,1.3855037E1,3.31246E1,4.5063557E1,3.4376194E1,1.1135672E2,5.2217216E0,1.02904825E1,4.7474762E1,2.228994E0,1.0823275E0,1.1199841E1,2.8203386E1,1.9350315E1,4.8506184E1,1.3760744E2,1.2298457E2,1.9336782E1,1.1202049E2,1.0498903E2,5.5576473E1,1.03007835E2,9.787147E1,1.1031889E1,2.1738703E1,7.711952E1,8.609768E0,6.5997157E0,4.2339225E0,1.4549259E0,1.8852205E1,3.3021767E1,1.3990563E1,7.2268205E0,3.4683895E1,8.052153E0,6.8657947E0,1.3845646E0,3.5954177E0,1.0953376E0,1.21908865E1,3.8607933E1,4.6231113E1,1.4348425E2,2.2114435E2,4.025134E2,1.633652E2,4.1433548E2,3.4218981E0,8.318472E0,7.8667207E0,3.0191014E0,1.074406E1,3.5984463E1,1.1365099E1,2.4899375E0,7.1252027E0,2.5999397E1,8.379508E0,3.668405E1,1.0888202E1,2.3487991E1,9.583412E1,1.5522594E1,3.5155282E0,1.7061932E0,1.6966013E0,8.593882E0,1.0000128E0,1.2289811E0],"tree_param":{"num_deleted":"0","num_feature":"20","num_nodes":"123","size_leaf_vector":"1"}},{"base_weights":[1.9024208E-3,-2.3428853E-1,6.07225E-2,-1.1526255E-1,-3.8661563E-1,-1.8547794E-1,1.1249237E-1,-3.5519716E-1,-4.5487466E-3,-3.5793397E-1,-1.1980741E0,-7.753364E-2,-3.7006673E-1,2.518597E-2,2.776442E-1,-6.366197E-1,-1.83213E-1,1.2386387E-1,-3.425639E-1,-6.261347E-1,-2.8587398E-1,-6.1078656E-1,-4.4391355E-1,-3.740934E-1,1.7012455E-1,-4.1142207E-1,2.226701E-1,2.946265E-1,-3.5634153E-2,5.6845557E-2,3.6959144E-1,-2.5345832E-1,-9.045244E-1,-3.62406E-1,1.425433E-1,-2.1533845E-1,2.4640243E-1,-2.8176522E-2,-5.558298E-1,-3.6318937E-1,-9.046852E-1,-4.588049E-2,-4.5137382E-1,-9.554046E-2,-3.2752213E-1,-6.0693264E-1,-2.4466066E-1,-1.2842697E-1,4.3402624E-1,1.4277121E-1,-4.6838158E-1,8.147005E-1,-3.1607535E-1,-2.739746E-1,3.4704113E-1,-1.5650466E-1,9.897425E-2,2.984819E-1,-5.982773E-2,5.4164714E-1,2.4956205E-1,6.2186267E-2,-2.174535E-1,-6.608384E-2,-2.8094393E-1,-2.9616308E-1,-7.55142E-2,2.9291457E-1,-1.4230316E-2,-7.0541324E-3,-2.5788146E-1,1.980068E-1,2.3307277E-2,-8.606178E-2,1.2211873E-1,-3.1115687E-1,-9.291674E-2,-2.2051974E-1,-3.7058145E-3,-1.7955948E-1,-4.1358438E-1,-3.7803024E-2,1.9109093E-1,1.6433811E-1,-1.4201349E-1,-1.6871193E-1,1.2803774E-1,-2.1378246E-1,-1.35724265E-2,-1.3927914E-1,2.542757E-2,1.5608395E-2,-1.6716963E-1,1.944474E-1,7.2922097E-3,-2.0967196E-1,2.093374E-1,-1.8062441E-1,-8.728704E-2,-2.7974544E-2,3.1949127E-1,1.3707042E-1,-1.8350771E-1,2.4832346E-1,-1.4276147E-1,1.4595133E-1,4.9270958E-2,-1.0368376E-1,-2.4856113E-2,7.865204E-2,-1.55753E-2,3.254042E-2,2.4837358E-1,-5.2732714E-2,1.22091524E-1,2.2138758E-1,9.834155E-2,4.806926E-2,1.673547E-1],"categories":[],"categories_nodes":[],"categories_segments":[],"categories_sizes":[],"default_left":[0,0,0,0,0,0,0,0,0,0,0,0,0,0,0,0,0,0,0,0,0,0,0,0,0,0,0,0,0,0,0,0,0,0,0,0,0,0,0,0,0,0,0,0,0,0,0,0,0,0,0,0,0,0,0,0,0,0,0,0,0,0,0,0,0,0,0,0,0,0,0,0,0,0,0,0,0,0,0,0,0,0,0,0,0,0,0,0,0,0,0,0,0,0,0,0,0,0,0,0,0,0,0,0,0,0,0,0,0,0,0,0,0,0,0,0,0,0,0],"id":10,"left_children":[1,3,5,7,9,11,13,15,17,19,21,23,25,27,29,31,33,35,37,39,41,43,-1,45,47,49,51,53,55,57,59,61,63,65,67,69,71,73,75,77,79,81,83,85,-1,87,89,91,93,95,97,99,101,103,105,107,109,111,113,115,117,-1,-1,-1,-1,-1,-1,-1,-1,-1,-1,-1,-1,-1,-1,-1,-1,-1,-1,-1,-1,-1,-1,-1,-1,-1,-1,-1,-1,-1,-1,-1,-1,-1,-1,-1,-1,-1,-1,-1,-1,-1,-1,-1,-1,-1,-1,-1,-1,-1,-1,-1,-1,-1,-1,-1,-1,-1,-1],"loss_changes":[3.9440773E1,1.0218203E1,2.899047E1,8.477007E0,5.339882E0,7.8472185E0,2.7080313E1,4.760354E0,9.56612E0,4.4753304E0,4.2533875E-1,1.84751E1,3.6604252E0,2.0167643E1,1.3166462E1,3.6527042E0,3.784431E0,6.6927238E0,4.0522933E0,3.34544E0,7.5919685E0,9.631288E-1,0E0,3.2989082E0,1.0872669E1,4.373991E0,3.4930236E0,6.8493176E0,1.6357416E1,5.435202E0,9.331902E0,3.8317332E0,2.718296E-1,2.6241674E0,3.754812E0,5.2848635E0,8.170086E0,2.996469E0,3.9549646E0,3.5754313E0,2.611763E0,4.421456E0,2.7508774E0,1.0143383E0,0E0,2.3535748E0,5.4791856E0,5.073266E0,6.397832E0,6.7863064E0,2.7654133E0,1.261054E0,1.6577268E0,4.7728806E0,5.2214966E0,7.347582E0,1.1730696E1,6.221469E0,7.1303687E0,7.6303864E0,7.398323E0,0E0,0E0,0E0,0E0,0E0,0E0,0E0,0E0,0E0,0E0,0E0,0E0,0E0,0E0,0E0,0E0,0E0,0E0,0E0,0E0,0E0,0E0,0E0,0E0,0E0,0E0,0E0,0E0,0E0,0E0,0E0,0E0,0E0,0E0,0E0,0E0,0E0,0E0,0E0,0E0,0E0,0E0,0E0,0E0,0E0,0E0,0E0,0E0,0E0,0E0,0E0,0E0,0E0,0E0,0E0,0E0,0E0,0E0],"parents":[2147483647,0,0,1,1,2,2,3,3,4,4,5,5,6,6,7,7,8,8,9,9,10,10,11,11,12,12,13,13,14,14,15,15,16,16,17,17,18,18,19,19,20,20,21,21,23,23,24,24,25,25,26,26,27,27,28,28,29,29,30,30,31,31,32,32,33,33,34,34,35,35,36,36,37,37,38,38,39,39,40,40,41,41,42,42,43,43,45,45,46,46,47,47,48,48,49,49,50,50,51,51,52,52,53,53,54,54,55,55,56,56,57,57,58,58,59,59,60,60],"right_children":[2,4,6,8,10,12,14,16,18,20,22,24,26,28,30,32,34,36,38,40,42,44,-1,46,48,50,52,54,56,58,60,62,64,66,68,70,72,74,76,78,80,82,84,86,-1,88,90,92,94,96,98,100,102,104,106,108,110,112,114,116,118,-1,-1,-1,-1,-1,-1,-1,-1,-1,-1,-1,-1,-1,-1,-1,-1,-1,-1,-1,-1,-1,-1,-1,-1,-1,-1,-1,-1,-1,-1,-1,-1,-1,-1,-1,-1,-1,-1,-1,-1,-1,-1,-1,-1,-1,-1,-1,-1,-1,-1,-1,-1,-1,-1,-1,-1,-1,-1],"split_conditions":[2E0,4E0,2E0,3E0,1.36808E5,2E0,1E1,2E0,3E0,1E0,5E0,1E0,2.8E1,2E0,1E0,5.8454E4,1E1,1E0,2.6E1,7.8225E4,2E0,4E0,-4.4391355E-1,2E0,8E0,2E1,7E0,1.0468E4,2E0,1E1,2.5E1,2E0,1.9E1,2.1238E4,7E0,3.2E1,2E0,1E1,2.9E1,3.6089E4,2E0,1.2E1,5.27E0,2E0,-3.2752213E-1,5E0,8.24E0,9.9428E4,2.8E1,5.7931E4,8.08E0,2.4E1,2E0,1.593E3,2E0,1E0,2.6E1,5E0,5E0,2E0,8.97E0,6.2186267E-2,-2.174535E-1,-6.608384E-2,-2.8094393E-1,-2.9616308E-1,-7.55142E-2,2.9291457E-1,-1.4230316E-2,-7.0541324E-3,-2.5788146E-1,1.980068E-1,2.3307277E-2,-8.606178E-2,1.2211873E-1,-3.1115687E-1,-9.291674E-2,-2.2051974E-1,-3.7058145E-3,-1.7955948E-1,-4.1358438E-1,-3.7803024E-2,1.9109093E-1,1.6433811E-1,-1.4201349E-1,-1.6871193E-1,1.2803774E-1,-2.1378246E-1,-1.35724265E-2,-1.3927914E-1,2.542757E-2,1.5608395E-2,-1.6716963E-1,1.944474E-1,7.2922097E-3,-2.0967196E-1,2.093374E-1,-1.8062441E-1,-8.728704E-2,-2.7974544E-2,3.1949127E-1,1.3707042E-1,-1.8350771E-1,2.4832346E-1,-1.4276147E-1,1.4595133E-1,4.9270958E-2,-1.0368376E-1,-2.4856113E-2,7.865204E-2,-1.55753E-2,3.254042E-2,2.4837358E-1,-5.2732714E-2,1.22091524E-1,2.2138758E-1,9.834155E-2,4.806926E-2,1.673547E-1],"split_indices":[16,9,6,6,0,12,15,14,11,11,9,12,3,9,12,0,15,11,2,0,11,6,0,14,15,2,15,0,17,3,2,11,2,0,3,2,9,15,2,0,12,15,8,11,0,9,8,0,2,0,8,2,9,0,1,12,2,16,6,12,8,0,0,0,0,0,0,0,0,0,0,0,0,0,0,0,0,0,0,0,0,0,0,0,0,0,0,0,0,0,0,0,0,0,0,0,0,0,0,0,0,0,0,0,0,0,0,0,0,0,0,0,0,0,0,0,0,0,0],"split_type":[0,0,0,0,0,0,0,0,0,0,0,0,0,0,0,0,0,0,0,0,0,0,0,0,0,0,0,0,0,0,0,0,0,0,0,0,0,0,0,0,0,0,0,0,0,0,0,0,0,0,0,0,0,0,0,0,0,0,0,0,0,0,0,0,0,0,0,0,0,0,0,0,0,0,0,0,0,0,0,0,0,0,0,0,0,0,0,0,0,0,0,0,0,0,0,0,0,0,0,0,0,0,0,0,0,0,0,0,0,0,0,0,0,0,0,0,0,0,0],"sum_hessian":[2.8369185E3,5.6503754E2,2.2718809E3,3.181763E2,2.468612E2,3.942717E2,1.8776091E3,9.9763824E1,2.1841249E2,2.3982549E2,7.035727E0,2.4968204E2,1.4458966E2,1.2290387E3,6.4857056E2,3.68172E1,6.2946625E1,1.587403E2,5.967219E1,4.916156E1,1.9066393E2,3.3074775E0,3.7282493E0,1.1339091E2,1.3629114E2,1.3544551E2,9.144158E0,2.2562927E2,1.00340936E3,1.9115547E2,4.5741507E2,1.5950554E1,2.0866644E1,4.053597E1,2.2410654E1,4.192613E1,1.1681416E2,2.4575771E1,3.509642E1,2.6474289E1,2.2687271E1,7.833971E1,1.1232421E2,2.1755052E0,1.1319722E0,3.91943E1,7.41966E1,6.418834E1,7.21028E1,1.2483126E1,1.2296238E2,4.1125913E0,5.0315676E0,1.8686668E1,2.0694261E2,5.2859717E2,4.748122E2,6.17369E1,1.2941856E2,1.865266E2,2.7088846E2,8.349647E0,7.6009073E0,1.2832086E0,1.9583437E1,4.9089155E0,3.5627056E1,3.390374E0,1.902028E1,3.3105694E1,8.820435E0,3.299938E1,8.381479E1,1.56278305E1,8.94794E0,1.0785925E1,2.4310495E1,1.2320135E1,1.4154155E1,1.5158164E1,7.5291066E0,7.084215E1,7.4975615E0,1.9055037E0,1.1041871E2,1.1083057E0,1.0671996E0,3.2761864E1,6.4324393E0,4.4273136E1,2.9923466E1,4.5795002E1,1.8393337E1,4.6971886E1,2.513091E1,4.8575287E0,7.6255975E0,6.875676E1,5.420562E1,1.0242286E0,3.0883627E0,1.2410073E0,3.7905602E0,2.414003E0,1.6272665E1,1.1644462E2,9.049799E1,1.471301E2,3.8146707E2,2.2774933E2,2.4706285E2,4.631809E1,1.5418811E1,1.0416784E2,2.5250729E1,9.597167E1,9.055493E1,2.112074E2,5.968106E1],"tree_param":{"num_deleted":"0","num_feature":"20","num_nodes":"119","size_leaf_vector":"1"}},{"base_weights":[8.768791E-4,-1.3803393E-1,8.571172E-2,-7.46773E-2,-3.1525263E-1,2.7349569E-2,3.264932E-1,-2.5765032E-1,-1.2110609E-2,-3.9768282E-1,-1.6768274E-3,-1.9230428E-1,8.400502E-2,9.9329926E-2,4.6745268E-1,-8.1828195E-1,-2.1013844E-1,1.4331487E-1,-1.0139204E-1,-5.875424E-1,-2.6630998E-1,2.760394E-1,-2.1241188E-1,-1.0179779E-1,-4.3984792E-1,2.4180539E-1,-1.1338771E-2,4.20063E-1,7.6369615E-3,5.4466563E-1,1.3732946E-1,-3.1536785E-1,-3.7430772E-1,2.0021904E-1,-2.823688E-1,-4.6313873E-1,2.3236394E-1,1.5826376E-2,-2.7327642E-1,-6.0374486E-1,1.2304198E-1,-3.198501E-1,1.061562E-1,-1.3859516E-1,6.215513E-1,-5.2165586E-1,1.2169988E-1,-7.7762686E-2,-1.0306534E0,-4.896799E-1,5.1669323E-1,2.7381176E-1,-3.3082283E-1,3.1385806E-1,-7.833466E-2,6.3062364E-1,-4.627344E-2,8.106373E-1,-2.6130449E-2,3.2907993E-1,7.044889E-1,5.5452573E-1,-1.4934771E-1,1.1102303E-1,-2.3814139E-1,-1.0838985E-1,1.2169975E-1,-1.8181598E-1,-5.930618E-2,1.8444876E-1,-1.6293193E-1,3.641832E-2,1.4047985E-1,-4.4683006E-2,7.022877E-2,-1.3092674E-1,-2.6103754E-2,-1.3915361E-1,-2.1924196E-1,-5.36933E-2,-1.5453614E-1,2.8948426E-1,-7.013478E-2,1.8852903E-1,-1.2464121E-1,4.4058185E-2,2.960625E-1,5.0157815E-2,-2.7583164E-1,-1.8146011E-1,1.7391875E-1,-5.4396432E-2,4.4857457E-2,-4.5595664E-1,-7.7434964E-3,-1.7345576E-1,-5.368519E-3,-1.5295523E-1,4.110223E-1,3.1236907E-2,1.1072486E-1,-1.4795442E-1,7.334182E-2,1.7941942E-2,1.2635578E-1,5.2258495E-2,-4.5706417E-2,8.413823E-3,2.2289138E-1,1.0505729E-1,-2.9170245E-1,-7.958737E-2,3.8311768E-1,-2.4708907E-1,5.84785E-3,1.4954516E-1,-4.0720772E-2,8.8257566E-2,2.4215817E-1,2.1619447E-1,2.3786826E-2,-3.572588E-1,2.380182E-2],"categories":[],"categories_nodes":[],"categories_segments":[],"categories_sizes":[],"default_left":[0,0,0,0,0,0,0,0,0,0,0,0,0,0,0,0,0,0,0,0,0,0,0,0,0,0,0,0,0,0,0,0,0,0,0,0,0,0,0,0,0,0,0,0,0,0,0,0,0,0,0,0,0,0,0,0,0,0,0,0,0,0,0,0,0,0,0,0,0,0,0,0,0,0,0,0,0,0,0,0,0,0,0,0,0,0,0,0,0,0,0,0,0,0,0,0,0,0,0,0,0,0,0,0,0,0,0,0,0,0,0,0,0,0,0,0,0,0,0,0,0,0,0],"id":11,"left_children":[1,3,5,7,9,11,13,15,17,19,21,23,25,27,29,31,33,35,37,39,41,43,45,47,49,51,53,55,57,59,61,-1,63,65,67,69,71,73,75,77,-1,79,81,83,85,87,89,91,93,95,97,99,101,103,105,107,109,111,113,115,117,119,121,-1,-1,-1,-1,-1,-1,-1,-1,-1,-1,-1,-1,-1,-1,-1,-1,-1,-1,-1,-1,-1,-1,-1,-1,-1,-1,-1,-1,-1,-1,-1,-1,-1,-1,-1,-1,-1,-1,-1,-1,-1,-1,-1,-1,-1,-1,-1,-1,-1,-1,-1,-1,-1,-1,-1,-1,-1,-1,-1,-1],"loss_changes":[3.2692596E1,1.178677E1,2.4194305E1,8.882391E0,7.151581E0,1.7281872E1,1.0710407E1,5.0948267E0,8.055122E0,5.3084564E0,3.4882326E0,6.335593E0,1.660709E1,3.817113E0,5.2023354E0,1.1683941E0,5.499219E0,1.154685E1,7.4311533E0,1.6826763E0,2.6528397E0,3.7704515E0,3.5644102E0,4.604537E0,3.8729944E0,7.709648E0,1.5033822E1,2.863235E0,2.7880468E0,5.5377083E0,4.936305E0,0E0,2.401556E0,3.3846402E0,4.171403E0,2.7005906E0,4.7956743E0,7.9506702E0,4.5054054E0,1.2210579E0,0E0,3.0731792E0,5.2631683E0,2.9172328E0,2.3193593E0,5.027258E0,6.040614E0,4.867097E0,2.52246E0,3.025175E0,4.419098E0,6.3352394E0,2.2182958E0,3.1890888E0,1.0719072E1,1.3299131E0,3.9789078E0,2.4209342E0,3.6141922E0,5.828769E0,3.777752E0,1.2644491E0,6.011056E0,0E0,0E0,0E0,0E0,0E0,0E0,0E0,0E0,0E0,0E0,0E0,0E0,0E0,0E0,0E0,0E0,0E0,0E0,0E0,0E0,0E0,0E0,0E0,0E0,0E0,0E0,0E0,0E0,0E0,0E0,0E0,0E0,0E0,0E0,0E0,0E0,0E0,0E0,0E0,0E0,0E0,0E0,0E0,0E0,0E0,0E0,0E0,0E0,0E0,0E0,0E0,0E0,0E0,0E0,0E0,0E0,0E0,0E0,0E0,0E0],"parents":[2147483647,0,0,1,1,2,2,3,3,4,4,5,5,6,6,7,7,8,8,9,9,10,10,11,11,12,12,13,13,14,14,15,15,16,16,17,17,18,18,19,19,20,20,21,21,22,22,23,23,24,24,25,25,26,26,27,27,28,28,29,29,30,30,32,32,33,33,34,34,35,35,36,36,37,37,38,38,39,39,41,41,42,42,43,43,44,44,45,45,46,46,47,47,48,48,49,49,50,50,51,51,52,52,53,53,54,54,55,55,56,56,57,57,58,58,59,59,60,60,61,61,62,62],"right_children":[2,4,6,8,10,12,14,16,18,20,22,24,26,28,30,32,34,36,38,40,42,44,46,48,50,52,54,56,58,60,62,-1,64,66,68,70,72,74,76,78,-1,80,82,84,86,88,90,92,94,96,98,100,102,104,106,108,110,112,114,116,118,120,122,-1,-1,-1,-1,-1,-1,-1,-1,-1,-1,-1,-1,-1,-1,-1,-1,-1,-1,-1,-1,-1,-1,-1,-1,-1,-1,-1,-1,-1,-1,-1,-1,-1,-1,-1,-1,-1,-1,-1,-1,-1,-1,-1,-1,-1,-1,-1,-1,-1,-1,-1,-1,-1,-1,-1,-1,-1,-1,-1,-1],"split_conditions":[2E0,3E1,5E0,1E0,5E0,1E0,3E0,1E0,2E0,2.9889834E0,5.6349E4,3E1,2E0,2.2E1,3.2E1,7.79E0,2E1,2E0,2E0,9.97E0,1.24823E5,2.4529E4,9E0,1.37956E5,9.94E0,3.4E1,2E0,2E1,5.32E0,7E0,7.1E0,-3.1536785E-1,1.4E1,6.29E0,2.7471E4,5.6E0,8.73E0,9E0,2E0,3.3E1,1.2304198E-1,2E0,5.86E0,5.011E3,2E0,7.06E0,8.9929E4,4E0,2E0,5E0,5.0642E4,3E0,1.10642E5,5E0,2.2E1,2E0,5E0,3E0,5.58E0,2.2E1,6.16E0,1.03744E5,7.49E0,1.1102303E-1,-2.3814139E-1,-1.0838985E-1,1.2169975E-1,-1.8181598E-1,-5.930618E-2,1.8444876E-1,-1.6293193E-1,3.641832E-2,1.4047985E-1,-4.4683006E-2,7.022877E-2,-1.3092674E-1,-2.6103754E-2,-1.3915361E-1,-2.1924196E-1,-5.36933E-2,-1.5453614E-1,2.8948426E-1,-7.013478E-2,1.8852903E-1,-1.2464121E-1,4.4058185E-2,2.960625E-1,5.0157815E-2,-2.7583164E-1,-1.8146011E-1,1.7391875E-1,-5.4396432E-2,4.4857457E-2,-4.5595664E-1,-7.7434964E-3,-1.7345576E-1,-5.368519E-3,-1.5295523E-1,4.110223E-1,3.1236907E-2,1.1072486E-1,-1.4795442E-1,7.334182E-2,1.7941942E-2,1.2635578E-1,5.2258495E-2,-4.5706417E-2,8.413823E-3,2.2289138E-1,1.0505729E-1,-2.9170245E-1,-7.958737E-2,3.8311768E-1,-2.4708907E-1,5.84785E-3,1.4954516E-1,-4.0720772E-2,8.8257566E-2,2.4215817E-1,2.1619447E-1,2.3786826E-2,-3.572588E-1,2.380182E-2],"split_indices":[14,2,16,11,6,11,6,15,11,16,0,2,11,2,2,8,2,6,19,8,0,0,15,0,8,2,9,3,8,15,8,0,3,8,0,8,8,15,17,2,0,19,8,0,17,8,0,6,12,6,0,6,0,15,2,9,9,9,8,3,8,0,8,0,0,0,0,0,0,0,0,0,0,0,0,0,0,0,0,0,0,0,0,0,0,0,0,0,0,0,0,0,0,0,0,0,0,0,0,0,0,0,0,0,0,0,0,0,0,0,0,0,0,0,0,0,0,0,0,0,0,0,0],"split_type":[0,0,0,0,0,0,0,0,0,0,0,0,0,0,0,0,0,0,0,0,0,0,0,0,0,0,0,0,0,0,0,0,0,0,0,0,0,0,0,0,0,0,0,0,0,0,0,0,0,0,0,0,0,0,0,0,0,0,0,0,0,0,0,0,0,0,0,0,0,0,0,0,0,0,0,0,0,0,0,0,0,0,0,0,0,0,0,0,0,0,0,0,0,0,0,0,0,0,0,0,0,0,0,0,0,0,0,0,0,0,0,0,0,0,0,0,0,0,0,0,0,0,0],"sum_hessian":[2.772205E3,1.0508645E3,1.7213405E3,7.751616E2,2.7570294E2,1.3864077E3,3.349327E2,1.9672672E2,5.784349E2,2.1810191E2,5.7601036E1,2.8378308E2,1.1026246E3,1.2890326E2,2.0602945E2,1.4102074E1,1.8262463E2,2.1082143E2,3.6761346E2,8.777601E1,1.3032591E2,2.4717417E1,3.288362E1,2.0883894E2,7.494413E1,4.1471213E2,6.8791254E2,2.7862337E1,1.01040924E2,1.6644867E2,3.9580784E1,8.35212E0,5.7499523E0,2.7068764E1,1.5555588E2,2.6454771E1,1.8436665E2,2.1910223E2,1.4851123E2,8.676184E1,1.014168E0,1.1407017E2,1.6255741E1,1.1507096E1,1.32103195E1,1.6785831E1,1.609779E1,2.046277E2,4.211235E0,7.169707E1,3.2470596E0,3.9325354E2,2.1458601E1,1.1688246E2,5.710301E2,1.8952564E1,8.909773E0,3.1490464E0,9.7891884E1,7.2164696E1,9.428397E1,1.57401285E1,2.3840654E1,2.1149125E0,3.63504E0,7.047695E0,2.0021069E1,3.0980402E1,1.2457547E2,1.365072E0,2.5089699E1,1.2641501E2,5.795165E1,1.2503331E2,9.4068924E1,7.845261E1,7.005862E1,4.350824E1,4.32536E1,6.737842E1,4.6691753E1,4.08845E0,1.2167291E1,2.7152762E0,8.791821E0,6.3549232E0,6.8553967E0,6.3569913E0,1.042884E1,6.1003246E0,9.997466E0,1.4071579E2,6.3911922E1,2.487619E0,1.7236164E0,6.0181583E1,1.1515486E1,1.6567199E0,1.5903395E0,1.4215396E2,2.5109958E2,1.6846855E1,4.611746E0,3.5175987E1,8.1706474E1,1.2913043E2,4.4189966E2,3.1746943E0,1.577787E1,6.6742654E0,2.2355072E0,1.0827072E0,2.0663393E0,4.3743815E0,9.35175E1,5.2835987E1,1.9328709E1,1.9649693E1,7.4634285E1,1.1280534E1,4.4595947E0,3.5347724E0,2.0305883E1],"tree_param":{"num_deleted":"0","num_feature":"20","num_nodes":"123","size_leaf_vector":"1"}},{"base_weights":[1.0623479E-3,-7.411685E-2,1.1318704E-1,-1.9084968E-1,-7.440943E-3,2.1247715E-1,-2.5157707E-2,-3.05315E-1,-6.9906E-2,-1.896299E-1,3.112981E-2,1.0347365E-1,3.7190005E-1,7.909488E-2,-1.7665394E-1,1.3083337E-1,-3.3808556E-1,-3.5609567E-1,5.1628336E-2,-2.4816991E-1,1.19832724E-1,-4.3915875E-2,1.402637E-1,-2.0272133E-1,2.2563393E-1,4.1702348E-1,9.022669E-3,-1.2868637E-1,1.6597351E-1,-3.481149E-1,1.5921475E-2,5.401729E-1,-2.7707556E-1,-5.4815716E-1,-2.752838E-1,-7.309045E-1,-1.956623E-1,-1.8173696E-1,1.3701804E-1,-1.7358601E-1,-5.602319E-1,-7.503876E-1,2.9967085E-1,-2.5378075E-1,1.3133234E-2,2.417621E-1,-1.275668E-1,-2.788107E-1,2.7037704E-1,6.0604924E-1,1.4823169E-1,1.1327757E0,3.924807E-1,-3.631553E-1,3.7093744E-1,9.362796E-3,-6.512975E-1,3.663631E-1,-7.333999E-2,-5.478413E-1,-1.3008521E-1,8.873723E-1,-2.8092425E-2,-3.282184E-1,2.602624E-1,1.3949658E-1,-2.1328957E-1,-1.06069855E-1,-2.196105E-1,-5.1977374E-2,-1.3308273E-1,-8.116943E-2,-2.7359498E-1,-1.2230039E-1,1.1622127E-1,1.4835818E-1,-8.747912E-2,9.8750226E-2,-1.7877977E-2,-1.9337921E-1,-3.3142198E-2,-2.9921398E-1,-9.99636E-2,1.4321583E-2,-3.007643E-1,-7.41945E-3,1.9704951E-1,-1.0977572E-1,1.5646785E-1,-2.9637976E-2,4.0278435E-2,3.909733E-2,1.2467822E-1,-1.3087739E-1,5.2325077E-2,-2.3106822E-1,-5.4052938E-2,2.6423806E-1,-8.230349E-3,7.0640825E-2,2.3315097E-1,5.3726874E-2,-1.4896755E-1,3.803825E-1,1.3279851E-1,4.4093512E-2,1.3808069E-1,1.6259817E-2,-2.3856804E-1,2.4125409E-1,-4.3263696E-2,-3.9074298E-2,1.06099926E-1,7.139037E-2,-2.2155115E-1,2.3500659E-2,1.7267111E-1,3.995806E-2,-9.560942E-2,-1.8776453E-1,1.07086554E-1,-1.172253E-1,3.6788475E-2,6.242423E-2,3.3159846E-1,3.8114063E-2,-7.268319E-2],"categories":[],"categories_nodes":[],"categories_segments":[],"categories_sizes":[],"default_left":[0,0,0,0,0,0,0,0,0,0,0,0,0,0,0,0,0,0,0,0,0,0,0,0,0,0,0,0,0,0,0,0,0,0,0,0,0,0,0,0,0,0,0,0,0,0,0,0,0,0,0,0,0,0,0,0,0,0,0,0,0,0,0,0,0,0,0,0,0,0,0,0,0,0,0,0,0,0,0,0,0,0,0,0,0,0,0,0,0,0,0,0,0,0,0,0,0,0,0,0,0,0,0,0,0,0,0,0,0,0,0,0,0,0,0,0,0,0,0,0,0,0,0,0,0,0,0],"id":12,"left_children":[1,3,5,7,9,11,13,15,17,19,21,23,25,27,29,31,33,35,37,39,41,43,45,47,49,51,53,55,57,59,61,63,65,67,69,71,73,75,77,79,81,83,85,87,89,91,93,95,97,99,101,103,105,107,109,111,113,115,117,119,121,123,125,-1,-1,-1,-1,-1,-1,-1,-1,-1,-1,-1,-1,-1,-1,-1,-1,-1,-1,-1,-1,-1,-1,-1,-1,-1,-1,-1,-1,-1,-1,-1,-1,-1,-1,-1,-1,-1,-1,-1,-1,-1,-1,-1,-1,-1,-1,-1,-1,-1,-1,-1,-1,-1,-1,-1,-1,-1,-1,-1,-1,-1,-1,-1,-1],"loss_changes":[2.275592E1,1.2576654E1,1.4889132E1,8.111237E0,7.2410035E0,1.0925329E1,7.1784773E0,4.3536873E0,9.998657E0,3.2911386E0,6.9722776E0,1.4113558E1,4.185074E0,4.8845353E0,6.121474E0,3.788388E0,3.5525894E0,5.007723E0,4.055765E0,3.4339266E0,4.812242E0,6.046548E0,9.458582E0,3.9553475E0,7.840069E0,3.5518608E0,4.0833E0,5.777403E0,9.158022E0,4.1974525E0,3.40779E0,6.949706E0,4.0578113E0,2.0168E0,3.6690426E0,1.8629808E0,7.7413645E0,4.202022E0,5.635935E0,3.6118872E0,2.5275145E0,1.1156394E0,2.9136417E0,9.575132E0,5.4066954E0,4.8244095E0,9.021798E0,4.3855834E0,2.8311627E0,2.683834E0,4.567796E0,9.282684E-2,3.6184464E0,2.7403836E0,3.5434167E0,3.1351871E0,1.4731112E0,6.2095222E0,4.482008E0,3.8139372E0,3.2215502E0,4.0235066E-1,2.8527274E0,0E0,0E0,0E0,0E0,0E0,0E0,0E0,0E0,0E0,0E0,0E0,0E0,0E0,0E0,0E0,0E0,0E0,0E0,0E0,0E0,0E0,0E0,0E0,0E0,0E0,0E0,0E0,0E0,0E0,0E0,0E0,0E0,0E0,0E0,0E0,0E0,0E0,0E0,0E0,0E0,0E0,0E0,0E0,0E0,0E0,0E0,0E0,0E0,0E0,0E0,0E0,0E0,0E0,0E0,0E0,0E0,0E0,0E0,0E0,0E0,0E0,0E0,0E0,0E0],"parents":[2147483647,0,0,1,1,2,2,3,3,4,4,5,5,6,6,7,7,8,8,9,9,10,10,11,11,12,12,13,13,14,14,15,15,16,16,17,17,18,18,19,19,20,20,21,21,22,22,23,23,24,24,25,25,26,26,27,27,28,28,29,29,30,30,31,31,32,32,33,33,34,34,35,35,36,36,37,37,38,38,39,39,40,40,41,41,42,42,43,43,44,44,45,45,46,46,47,47,48,48,49,49,50,50,51,51,52,52,53,53,54,54,55,55,56,56,57,57,58,58,59,59,60,60,61,61,62,62],"right_children":[2,4,6,8,10,12,14,16,18,20,22,24,26,28,30,32,34,36,38,40,42,44,46,48,50,52,54,56,58,60,62,64,66,68,70,72,74,76,78,80,82,84,86,88,90,92,94,96,98,100,102,104,106,108,110,112,114,116,118,120,122,124,126,-1,-1,-1,-1,-1,-1,-1,-1,-1,-1,-1,-1,-1,-1,-1,-1,-1,-1,-1,-1,-1,-1,-1,-1,-1,-1,-1,-1,-1,-1,-1,-1,-1,-1,-1,-1,-1,-1,-1,-1,-1,-1,-1,-1,-1,-1,-1,-1,-1,-1,-1,-1,-1,-1,-1,-1,-1,-1,-1,-1,-1,-1,-1,-1],"split_conditions":[4E0,2E0,2E0,2E0,2E0,8.24E0,2.8E1,1.9E1,3E0,2.5E1,9E0,5E0,3.3E1,1E0,5E0,6.5231E4,4E0,1E0,1E0,9.39E0,2.1E1,1E0,3E0,2.6E1,2.1E1,3.931E3,1.5E1,9.11E0,2E0,2E0,6.662E3,5.75E0,1.2E1,7.83E0,2E0,3E0,3E0,1.4893E4,2E0,1.6835E4,2E0,1E0,2E0,1.20365E5,2E0,4E0,7.75E0,2.1238E4,3.8929E4,2E0,1.34187E5,1.1E1,1E0,9.25E0,3.4E1,4E0,4E0,2E0,2E0,1.29175E5,7.49E0,7E0,5E0,-3.282184E-1,2.602624E-1,1.3949658E-1,-2.1328957E-1,-1.06069855E-1,-2.196105E-1,-5.1977374E-2,-1.3308273E-1,-8.116943E-2,-2.7359498E-1,-1.2230039E-1,1.1622127E-1,1.4835818E-1,-8.747912E-2,9.8750226E-2,-1.7877977E-2,-1.9337921E-1,-3.3142198E-2,-2.9921398E-1,-9.99636E-2,1.4321583E-2,-3.007643E-1,-7.41945E-3,1.9704951E-1,-1.0977572E-1,1.5646785E-1,-2.9637976E-2,4.0278435E-2,3.909733E-2,1.2467822E-1,-1.3087739E-1,5.2325077E-2,-2.3106822E-1,-5.4052938E-2,2.6423806E-1,-8.230349E-3,7.0640825E-2,2.3315097E-1,5.3726874E-2,-1.4896755E-1,3.803825E-1,1.3279851E-1,4.4093512E-2,1.3808069E-1,1.6259817E-2,-2.3856804E-1,2.4125409E-1,-4.3263696E-2,-3.9074298E-2,1.06099926E-1,7.139037E-2,-2.2155115E-1,2.3500659E-2,1.7267111E-1,3.995806E-2,-9.560942E-2,-1.8776453E-1,1.07086554E-1,-1.172253E-1,3.6788475E-2,6.242423E-2,3.3159846E-1,3.8114063E-2,-7.268319E-2],"split_indices":[16,14,19,17,6,8,2,2,6,3,15,15,2,12,16,0,15,12,12,8,2,11,11,3,2,0,3,8,12,17,0,8,3,8,12,9,11,0,12,0,16,11,1,0,17,6,8,0,0,9,0,15,11,8,2,6,3,14,11,0,8,15,9,0,0,0,0,0,0,0,0,0,0,0,0,0,0,0,0,0,0,0,0,0,0,0,0,0,0,0,0,0,0,0,0,0,0,0,0,0,0,0,0,0,0,0,0,0,0,0,0,0,0,0,0,0,0,0,0,0,0,0,0,0,0,0,0],"split_type":[0,0,0,0,0,0,0,0,0,0,0,0,0,0,0,0,0,0,0,0,0,0,0,0,0,0,0,0,0,0,0,0,0,0,0,0,0,0,0,0,0,0,0,0,0,0,0,0,0,0,0,0,0,0,0,0,0,0,0,0,0,0,0,0,0,0,0,0,0,0,0,0,0,0,0,0,0,0,0,0,0,0,0,0,0,0,0,0,0,0,0,0,0,0,0,0,0,0,0,0,0,0,0,0,0,0,0,0,0,0,0,0,0,0,0,0,0,0,0,0,0,0,0,0,0,0,0],"sum_hessian":[2.6975803E3,1.6150405E3,1.0825398E3,5.864503E2,1.0285902E3,6.299142E2,4.526256E2,3.005114E2,2.859389E2,1.7902922E2,8.49561E2,3.7509592E2,2.5481824E2,2.6840192E2,1.8422368E2,2.0792233E1,2.7971918E2,8.465734E1,2.0128156E2,1.507167E2,2.8312511E1,5.0375357E2,3.4580743E2,1.0678347E2,2.6831244E2,2.2650356E2,2.8314692E1,7.899476E1,1.8940717E2,9.7027145E1,8.7196526E1,1.0216078E1,1.0576156E1,6.259866E1,2.1712053E2,2.4309355E1,6.0347984E1,5.3618065E1,1.476635E2,1.2289955E2,2.7817158E1,4.3055887E0,2.4006924E1,1.06933174E2,3.968204E2,2.5084375E2,9.4963684E1,9.234251E1,1.4440965E1,4.4208313E1,2.2410414E2,6.0121922E0,2.2049136E2,1.3957725E1,1.4356967E1,6.326517E1,1.5729584E1,1.027981E2,8.660906E1,4.984963E1,4.7177517E1,3.2710173E0,8.3925514E1,1.3140929E0,8.901985E0,3.8758204E0,6.700335E0,3.18334E1,3.0765257E1,1.3644644E2,8.067408E1,7.566902E0,1.6742453E1,4.447683E1,1.5871156E1,7.00375E0,4.6614315E1,7.433817E1,7.3325325E1,1.3433143E1,1.0946641E2,8.348325E0,1.9468832E1,1.2283494E0,3.0772393E0,1.3068138E1,1.0938786E1,9.388285E1,1.30503235E1,2.0633989E2,1.904805E2,1.5392041E2,9.6923355E1,4.6740437E1,4.8223244E1,1.429799E1,7.804452E1,4.09336E0,1.0347605E1,1.4715782E1,2.949253E1,2.1455821E2,9.545921E0,4.327345E0,1.6848477E0,4.8394344E1,1.7209702E2,7.5446305E0,6.413094E0,7.493687E0,6.8632803E0,4.545535E1,1.7809822E1,1.250376E0,1.4479207E1,4.3829693E1,5.8968407E1,4.727328E1,3.9335785E1,4.6175194E1,3.6744344E0,2.2954487E1,2.4223032E1,1.2694094E0,2.001608E0,4.890748E1,3.5018032E1],"tree_param":{"num_deleted":"0","num_feature":"20","num_nodes":"127","size_leaf_vector":"1"}},{"base_weights":[9.399331E-4,-3.769363E-2,1.89879E-1,-1.7759937E-1,1.8522717E-2,1.2793937E-1,4.6880543E-1,-3.8452557E-1,-1.2342735E-1,1.4968373E-1,-1.1315606E-1,4.959197E-1,9.975855E-2,2.5224897E-1,6.488311E-1,-5.3733385E-1,-2.1900705E-1,1.3001032E-1,-1.9811244E-1,4.1307634E-1,9.964346E-2,-2.880951E-1,-6.475909E-2,6.08004E-1,-1.832262E-1,1.3691293E-1,-9.481634E-2,4.2005032E-1,-8.114599E-2,8.4733963E-1,4.468137E-1,-3.0665502E-1,-7.0189935E-1,1.4596216E-1,-3.7304974E-1,2.1372331E-2,6.3501996E-1,-2.2395459E-1,1.0420869E-1,5.9712136E-1,1.020531E-1,-2.4609062E-1,1.39877E-1,-3.363123E-1,2.4557465E-1,9.184665E-2,-1.5733951E-1,1.6362707E-1,9.2938036E-1,3.260532E-1,8.7224044E-2,-3.014812E-1,5.162639E-1,5.544273E-1,-4.154048E-1,6.9297314E-1,-3.5903984E-1,2.7816552E-1,2.7409455E-1,-3.929491E-1,6.641847E-1,-2.7208695E-1,-3.2186404E-2,-2.331904E-1,7.931163E-3,1.03690915E-1,-2.0419261E-1,-1.8756503E-1,-3.184904E-2,-8.305243E-2,6.9464445E-2,2.2120367E-1,-1.2668541E-1,1.8638467E-2,-7.658278E-2,1.4993785E-1,-6.622855E-2,1.2629212E-2,2.1209516E-1,6.458475E-2,-1.2591268E-1,7.826332E-2,-1.15047134E-1,-2.9958624E-2,5.8550537E-2,-7.2213456E-2,-2.2842501E-1,-2.5752667E-1,1.2740134E-1,5.2387916E-2,-5.252499E-2,-1.1505968E-1,-2.9816927E-2,-8.870964E-2,1.5478031E-1,1.4448763E-1,3.2290494E-1,6.5723225E-2,2.59098E-1,-1.21782655E-2,4.9201217E-2,5.6003828E-2,-1.4286618E-1,2.5709385E-1,-5.2706316E-2,2.8895745E-1,7.295325E-2,-2.6861614E-1,9.539355E-2,3.2210592E-2,2.5719342E-1,1.21537566E-1,-1.922422E-1,-1.2586364E-1,2.0328179E-1,-3.808404E-1,1.4181289E-1,2.1961415E-1,-9.484478E-4],"categories":[],"categories_nodes":[],"categories_segments":[],"categories_sizes":[],"default_left":[0,0,0,0,0,0,0,0,0,0,0,0,0,0,0,0,0,0,0,0,0,0,0,0,0,0,0,0,0,0,0,0,0,0,0,0,0,0,0,0,0,0,0,0,0,0,0,0,0,0,0,0,0,0,0,0,0,0,0,0,0,0,0,0,0,0,0,0,0,0,0,0,0,0,0,0,0,0,0,0,0,0,0,0,0,0,0,0,0,0,0,0,0,0,0,0,0,0,0,0,0,0,0,0,0,0,0,0,0,0,0,0,0,0,0,0,0,0,0],"id":13,"left_children":[1,3,5,7,9,11,13,15,